classdef NeuralNetwork < handle
  
    properties
        b1 = [-1.5906821390250007742;1.5805202513859595292;-1.3547393552958497676;1.2221626579236621879;0.98884980814114575853;0.97519678322211467147;0.84435858318917145215;0.74126292833544771277;0.58652832635505547376;0.41449683603482945227;-0.29895885139882955039;0.19444279939644060207;-0.055968054818876851464;0.051911705434350981225;0.18764162775876641609;-0.31216060457191924238;-0.44157161771626668445;-0.55116401675792225934;0.6969687512870611501;0.89349968169783855476;-0.92836165211865528946;1.0142385448053801156;1.2010244584430531667;1.4282772912520100839;1.4630876081423767054;-1.4894333636645857855];
        IW1_1 = [0.34040444627362415053 -0.45247277935215174383 -0.18355216162692847282 -0.25302671379619129377 0.38126490516146899212 -0.14804193219562220007 0.21550025311481957324 -0.050172696680164996508 0.39689446519735982477 0.18517681562889537483 -0.49958280761393808467 0.48116149191244289574 -0.49401551479211386342 0.44849386835855792333 -0.22813231943407483171 -0.12188953000951811834 0.26963026253757238493 -0.23467462165091571014 0.18228749516200407066 -0.31688418576233245982 -0.37238555527064792772 -0.28437836231995844427 -0.1923807523760439897 -0.20679851718707781272 -0.36785910399504451185 -0.06584563860532212376;-0.13265452110108524875 0.28376843165403614622 0.37678522203584435823 0.21802819564787589979 0.31708274720834811466 0.20363641536770812901 -0.30094120004054047968 0.207051411984258249 -0.021744456570147882579 0.098687527125656371307 -0.011121153186169865923 0.1875656286666732564 -0.45689665985885641319 -0.39309511617341136303 -0.5508986972851098729 -0.51095341438688690605 0.10781713164753436995 -0.28837406668372217444 -0.015989670158286561907 -0.24543953090089265512 0.18119841757792615189 0.21687764297137160363 -0.042557082262724157951 0.31567174371715145398 0.55571220553114375473 -0.24754566980174388946;0.13461992415682144664 0.36177457530464135482 0.23184623382733299257 -0.37063598278468107283 -0.2809452447368867567 0.17253820175220727084 0.29359315550036413356 0.32187475456908032356 0.53560403406985213071 0.45301765131465543401 -0.28113851581186566353 0.30379006255797891267 0.2019885104796732278 0.26485940514062022988 -0.032812264849746315687 0.34234319849854061291 0.2545575834442732055 0.015729934199558481822 -0.061487719034058078982 0.4586529431701349413 0.4246092679015059379 0.28875520689488876069 -0.13651964207391018014 0.31449708226670225475 -0.30381774193602129053 0.36851906119574412424;-0.46414165805070117798 -0.039485418191116519737 -0.50049328856107688779 -0.24734422264657981994 0.12051306774782986897 0.26580492181512266336 -0.13209650521117763389 -0.38059962360140459081 0.19405621523989041721 0.48815239917752484278 0.014930886619355767178 -0.46528898143611491234 -0.18931788609227631626 0.25735636467442918329 0.26826030566730191262 -0.16530328736306934556 -0.25104626643692640187 -0.40994274496391780449 0.15278188513093360346 0.23085448705293065697 -0.15995226938018983209 0.22892275605826037377 -0.091428192355678214454 0.37625380639619976364 0.45460561549876454812 0.54276853575248806827;0.11331058351357758962 -0.25895383665470894652 0.21849185294679898672 -0.53242287427392354093 0.2116363087416167077 0.52081311423663134708 0.13064573056749487212 0.34473811271322113425 0.13456045035465874493 0.27638914542052911427 0.17957486400894284717 0.47900279428263958792 0.50200843113971016507 0.2129131804774413439 0.23170027444458565768 0.20994747283707193564 0.40457932360456144716 -0.02511642631958680566 -0.50318792815961699283 0.098992134482206117774 0.12129966038557982166 0.20625140743956862921 -0.35704561210702578933 0.043638079935272848509 -0.29200178160970829966 -0.48480946785241185726;-0.11381893198786378896 -0.15393737427662607109 -0.094809334970723968539 0.037846253075488688056 0.057089731703757536085 0.46264360369642726356 0.15589826085050090265 0.48367063207600935471 0.31783492876243391034 0.02015734383063066959 -0.06958513345099998082 0.45458823287118915735 -0.44010238847622290548 -0.28886098055922559968 -0.43510301151012498178 0.26503016264590162354 0.55461990955942863657 -0.41613794004590665132 -0.17753556532177891536 -0.33605718929331773737 -0.30325917728886536695 -0.5119689268501042001 -0.27291412176820856184 0.13038588212453666726 -0.10515161722445273695 0.08829843770857970231;-0.39400062074082947694 -0.40756393589549083645 0.32671637265531872085 0.19749471928907999518 0.2972102821900252656 -0.28080953662232377432 -0.0065634451473980982839 0.061420062019132595776 0.33937069625182036958 0.42435925621090692106 0.068990809287165069663 0.41859612809761598262 0.43398284007303827847 0.048319353005671569767 -0.3818550199953696378 -0.35048569447781041664 0.29721965964633356716 -0.37179407451789181493 0.22015276216410520349 -0.2589363982478772308 0.066883218398932478554 0.22925266109975692141 -0.42674356163178189805 0.39220825172547874038 -0.37848237683048674418 -0.3949167014836427736;-0.27346910759456910522 -0.16267671253301957401 -0.49040522975150646623 0.0074340858624365596663 -0.2464887821273515911 -0.40944481589944636823 -0.53972682920176662247 0.35130340634851420223 0.47016889977267334322 0.035522136279364430189 -0.10466435296573797786 0.34252484389315396296 0.0083551123853112495288 -0.16576648130851309726 0.28838217158213175217 -0.3568961303330509538 -0.38728946695746097051 0.30574922230146917013 0.22142491842054007334 -0.40611342874311001649 0.29031553950333843783 -0.081011922966992902517 0.4234243852893309068 -0.048598216181199999086 0.15072511435373214805 0.34434955262352778815;-0.13436233295755520278 -0.12072529189669090055 -0.085140314559355376178 -0.066487546125711199929 -0.20975431039526842847 0.19507670735276855245 -0.1436083526398221899 0.12114425202176846985 -0.54732089881101120277 -0.48709715788672980352 -0.37251422428251762531 0.29346329810419968798 0.22587123824469107491 -0.40857499482064130181 0.43826459814112334046 0.055395967581060752416 -0.18243141114504909939 -0.22406276823954909827 -0.40522356476767801281 0.41890385329892948496 0.15885399845507916505 -0.26365144436574411424 0.13533683371141103091 -0.46595882963315693459 -0.337860251455746885 0.4933248143163279642;-0.48978735015851421197 -0.050664523417539124306 -0.11082399105856619026 0.18879012040908407788 -0.39193510646456430901 -0.39146379568686595629 -0.015599772289910218692 -0.30527586639573084382 0.39380689067779700574 -0.33838595755413314325 0.046848232412824319937 0.023014470162180215851 0.54142917673491264274 -0.3483477986136869764 0.050495010768254466882 -0.016417850138069345345 -0.14708376850458071416 0.081890106090369008118 -0.38566848451050667057 0.17486657570479552382 -0.11022004662895638905 -0.34059092140712610153 0.45534939909036448169 0.40959377702536625687 -0.4585988757622501133 -0.49025927404481173255;0.16852926156630015919 0.02461151261578201771 -0.013885326505382440676 0.1304796395191277214 0.47885118137930005044 0.0043606181136101925672 -0.28995976545164814375 -0.36434924935130863499 0.10940555509329820405 0.33836060522490429836 0.32442778720829540395 -0.35000409256782671896 -0.24463494642705307935 0.4561572359044180347 -0.42324261051567352299 0.42427106809799741693 0.21077810752403608463 0.5000526067393000762 -0.41510238278588346139 0.092975235331875433209 -0.28236327735896843416 0.29722649337438095118 -0.37328203149186234278 0.14207327317868975736 0.24000011877555518791 0.50251752127664839342;-0.023762380813054883449 0.43139438128199414368 0.30806536489377572829 0.19808989058459267052 0.16402100476300540688 0.030654169787987156637 -0.34427243299275150923 -0.11190902393641032064 0.54650047007798463472 -0.025463625001748854682 0.41088459777626218372 -0.11528829154951260316 -0.098508780336059809102 -0.47622506612126302983 0.36888913012534202407 0.34124415315910394675 0.11342455235122024526 -0.069128836367913393257 -0.54680010924093791491 -0.20820763722619850533 -0.060438586179993446235 -0.37203258193331495418 0.47329569071025934246 -0.16145992249038074173 -0.16603275691619759358 -0.53430175660098877533;0.20022898471355532468 -0.027013629391021282133 -0.24472685920736458876 0.19061806445765952511 -0.042071684449176055542 0.46316196317622404521 0.4283085883163239016 0.34126888491697160433 0.037268542808934643218 0.45020305899590262744 -0.27344804500070507558 -0.46933226565678048958 -0.048267072483912827618 -0.33184648512530373621 -0.20142128740185311075 0.29251796796253787258 0.33430256331913743573 0.24097141795523110974 -0.112800266308304864 -0.42156975622254777569 -0.068099195000760809338 -0.40242043854058917596 0.36865343447367815433 0.61814903767372064713 0.19826227896953116381 0.21589673254382513168;0.2831849624368064644 0.56850077594568049211 0.34638611828781135094 0.48290477128012565533 0.17458851300996228173 -0.031011112839953332981 -0.11308176096171645986 0.34776358055248846046 -0.022864755494438462891 -0.35015261953154219743 -0.35685245683107325032 -0.53794924645407693475 0.30284192755631045291 -0.47530892504037480784 -0.21461126191455451306 -0.50168560485009616734 -0.11281010509174105305 0.30710989236245644918 0.19607793120881400473 0.15922301156019069701 -0.20561879861014561999 0.1581400785782924312 0.095153946152632007394 -0.30614125540012465665 -0.12114628292731154102 0.35167537338866766694;0.2418763391191251777 0.24698068208889664699 0.021507077926302534121 -0.3891907016607414338 0.081705771512390279465 -0.1120661338295168008 0.44377139091400563675 0.31322105390000065661 0.37702497788318350969 0.021094488091525299273 0.042296483157936617947 0.56675028504835156529 0.39893338484976115232 -0.035058221266029185315 0.30468973616830524742 -0.52369833790956221709 -0.36556418719678118734 -0.055131062151769966162 0.28889998377279985098 0.64425775940068752412 0.04442749335682801004 0.4459427226459664606 -0.077783288778125930785 0.17009335105940431854 0.16517843475378729545 0.052527910647671455235;-0.43283968382008247699 0.48848830111808527743 -0.44556132468911935351 0.19193895202328767335 0.15159822507336903619 0.1623492438701132079 -0.13085297332099921075 -0.20457798186841891219 -0.27980758930848426136 0.11367222714987063048 0.12273592288918019899 -0.19821970893929594104 -0.39969243233511914104 -0.4737602298256693989 -0.48948469879851819186 -0.40895312849541903821 -0.40535001133271048035 0.16553218047711801275 0.047427890605222511322 -0.32199271489794994983 0.22883975517205942807 -0.0026242229497425838963 -0.24842722295923974629 0.10742480785334050652 -0.47108224747361554519 0.39455032468953943336;-0.43885871971013978854 -0.25625133420356005498 -0.33438325363005283464 -0.28492589828031839039 0.048110045532844036842 0.24873072728318554314 0.27176733160496441277 0.025657363150402821145 -0.00497786501988245738 -0.50350966343443848139 -0.098261926652112321912 -0.21676757922167841364 -0.34199348833489828792 0.42462780595341664824 -0.47382382275400569682 0.31626700934494955675 0.29411584243314642384 -0.40993586915292690165 -0.40764996238138273554 -0.24767672170797777609 -0.093516903489909292135 0.20403853370781788179 0.2615733235508929666 -0.11908928815591661443 0.43620323056263876627 0.42589026166599608381;-0.16658617025219024654 0.25577075118027031708 0.27608283899182134435 -0.45914483916919646145 0.25824971794509160583 0.00047108457851480559087 -0.15164214729324917985 -0.5083575100799490043 0.45230797006367262636 0.091735695852850754339 -0.38214426002122431347 -0.20571543407009593163 -0.18209503924171754896 -0.32976978843446491663 0.19741011618103815328 0.50712614354893648105 -0.32840164838335805797 0.52276850712051992076 0.16829645278333804637 -0.097806516378056596039 -0.11167152370770980219 -0.43857256368063490815 -0.32407281836895851512 -0.42485768113291827452 0.34719604647957064136 0.16183441844790888431;0.035167502249440374396 -0.21518187230997998238 -0.025841222699302512228 0.11037659834658516966 0.024692211732399656915 -0.15755369065722721333 0.31881202448940226812 -0.40493904330635849265 0.077135403449783715435 -0.14384321556502019379 0.46270892766335286472 -0.033535182906942968828 -0.45917817842937047601 -0.42078777915762810569 0.10576023199272924225 0.1903400625069815999 -0.11568100064491232404 -0.32267756410236109188 -0.38656135425937798722 -0.44146411559900755606 -0.39105912737337267249 0.46772400637271266399 -0.45424878690146897053 -0.49325891634685303799 0.25520162591820239051 -0.37522223265546572613;0.03094143806009998221 0.042360538629136121336 -0.42975566901408923659 -0.015537309384309826166 0.44277370642128011102 -0.38082038084934161093 0.30723960510659792389 -0.37518171988202414502 0.33915259796285668337 -0.46578000037248512566 -0.42115009061534103285 0.11017582863305069862 -0.011584936269028390382 -0.28126671979988038252 0.070120466887547763801 -0.41208739096768387533 0.0069909609039226494609 -0.27955777399399567296 -0.43136187225715155735 0.12890279731469056479 -0.4402796809684387247 0.12969885961003149721 0.30376070918647618546 -0.030910184801431157819 0.36209298661423133803 -0.3634302970184498105;-0.019672679404782414392 0.37327317486733746499 -0.15095413262739518223 -0.10950440397940408577 -0.37030174149462569133 0.09249887544320375965 -0.24615819098912444796 0.14144575998716227283 0.28830045897679418276 -0.082353548975439949675 -0.59975792622385437625 -0.64054976783856742983 -0.23792687187427766227 -0.0039008316178993848733 0.32765885030636665576 0.30195252759604312986 -0.32399558961203106522 0.43497787045245317472 -0.50278398464131779377 -0.10126897930519837554 -0.34624841646821313823 0.18786631298025260883 0.23286680083233016192 -0.41032456967667069181 -0.11439259521745856474 -0.38483580591023414108;0.40305999050169621922 -0.36805140206187092478 0.16718238045911548717 0.15940973662731006133 -0.33071984740774462708 -0.17393769327828706439 -0.30861852976317538655 -0.013461961464628684204 0.13619367481963623456 -0.32778454217419689121 -0.36762529545836281075 0.42587787277241612172 -0.29531249335900860986 -0.40628102976580132699 0.1811977188226361335 -0.39898072457294997406 0.16027596118469492059 -0.0046901965364319559218 -0.40466407690166555922 0.51425630372502384446 -0.23087126089011339447 -0.5631040583243916986 0.24959418731864985164 0.16740873772540471043 0.045885612948470044792 -0.44014974690756530906;0.22701326691920556411 -0.26964809176626891585 -0.33888719775436620951 0.28431383876054394655 -0.42291270295945065927 -0.49268197449458311921 0.30557641682937547456 -0.32634415878247846621 -0.26728931183643844793 -0.39691060432401459313 -0.35150554274797907173 0.058452449766097869244 -0.31119401077029468228 0.53140020846212476791 0.30391823018387226218 -0.41662301635887633022 -0.020181287374801126777 0.27791744737296553147 -0.35893551037051013575 -0.096992817524629820758 0.16032291714007723682 0.33604386927045781785 0.14865411526742955406 -0.13993260546640629016 0.086234870870505048179 -0.42425690029922280555;0.66756765819569341414 -0.14960187892228549167 0.37510239891267965762 -0.2352435053055365044 -0.55125342805983379435 0.23762846647271476663 0.36514320190153609635 -0.21101299910335216681 0.10070365114647591986 -0.47080652287824970026 -0.018463169366610313049 0.33908150394679392736 0.3852100611425762211 -0.10978854250907374435 -0.19313635293554548555 0.15987935382954920893 -0.32006436647523822669 -0.087309481029293062315 -0.28483786179317299725 0.16705839723416163189 0.41103474981558479895 0.1871715743714673641 -0.11862843823356650219 0.40393128907087944013 0.09402242901624441318 0.19009686007265746976;0.035903034105165078371 0.19942098085520548745 -0.31555435594609099192 0.19627827038518771974 -0.11430852578103602168 -0.31305520578576423452 -0.20702068246023419551 -0.42056570770757217836 -0.5053745135786595899 -0.42640922551924070882 0.088607144266635268215 -0.18444066090362123966 0.21273123931321727409 -0.24919433760810655309 0.23121738549446882449 -0.20475952952235804139 0.3344119289664358452 -0.27704199603881907166 -0.2202396550325173008 -0.41717863660748916166 0.51884028620906152973 -0.45216896071635620524 -0.13893478286158836288 0.28469145224795155968 -0.27012339947776170535 0.52227478252371106748;-0.084841033151949643565 0.56288061783026155371 0.53354710433899332767 -0.18107876291006619329 -0.072258475725604731643 -0.18725305238168055144 0.10749506253631685437 -0.62054462964055201457 0.083757173227299530627 -0.49243066448237748922 -0.67790284803202716102 -0.12643026667427265108 -0.10558738178774799976 -0.44662561204386835856 0.13096265075152616064 0.22306255924112186606 -0.38708371144529157837 -0.48872809679628798074 -0.1557258770535651371 -0.08552527132371388896 -0.13381965709584842106 -0.082507005259001217623 0.40782689106675462654 0.12817352396321046726 -0.2937747237987104465 -0.10422916304072121774];

        b2 = -0.0050785510582808009172;
        LW2_1 = [-0.15996378919517315054 0.78541675285920242722 0.86031359095954196281 0.30215018008857719156 0.62070625477142404858 0.38016779164472880304 -0.55939383135742604125 0.13783117061888300325 -0.39982759363400821595 -0.43418455452430282371 0.49754396402234857266 0.061426815213945731853 -0.18776872182982437542 0.35524090726653739791 0.39310867177226427316 -0.010013743141468953168 -0.019390153934176541928 0.45318458423231516852 -0.085345194099775617547 -0.68732575952160612776 0.41565794670510375353 1.00641142525985261 -0.30715600304632362239 0.8549553281481586664 -0.30966234341328696678 0.76058390385722307592];
    end
    
    methods
        function obj = NeuralNetwork()
        
        end
        function [classification] = classify(input)
            %MYNEURALNETWORKFUNCTION neural network simulation function.
            %
            % Generated by Neural Network Toolbox function genFunction, 10-May-2018 13:12:16.
            %
            % [y1] = myNeuralNetworkFunction(x1) takes these arguments:
            %   x = 26xQ matrix, input #1
            % and returns:
            %   y = 1xQ matrix, output #1
            % where Q is the number of samples.

            x1_step1.xoffset = [-0.0011950844243217;-0.000121836292281688;-0.00113723428399574;-0.000655706574093248;-0.000617767750718576;-0.000441459021779838;-0.000549960238583341;-0.000466959706881482;-0.000824863917797343;-0.000582042980412508;-0.000588315865671888;-0.000869071891518472;-0.000656197743009623;0.000274524856202996;0.000274524856202996;0.000274524856202996;0.000274524856202996;0.000274524856202996;0.000274524856202996;0.000274524856202996;0.000274524856202996;0.000274524856202996;0.000274524856202996;0.000274524856202996;0.000274524856202996;0.000274524856202996];
            x1_step1.gain = [983.514854249301;10391.7982926903;922.76888258844;1059.81153887952;270.522052628968;323.36435110898;308.963211840117;346.181071519252;335.518441299978;328.09136735309;351.245176321794;323.514787355892;340.932889575556;60.7109567315193;60.7109567315193;60.7109567315193;60.7109567315193;60.7109567315193;60.7109567315193;60.7109567315193;60.7109567315193;60.7109567315193;60.7109567315193;60.7109567315193;60.7109567315193;60.7109567315193];
            x1_step1.ymin = -1;

            Q = size(input,2);

            xp1 = obj.mapminmax_apply(input,x1_step1);

            a1 = obj.tansig_apply(repmat(obj.b1,1,Q) + obj.IW1_1*xp1);

            classification = obj.logsig_apply(repmat(obj.b2,1,Q) + obj.LW2_1*a1);

        end
        
        % Map Minimum and Maximum Input Processing Function
        function y = mapminmax_apply(obj, x,settings)
            y = bsxfun(@minus,x,settings.xoffset);
            y = bsxfun(@times,y,settings.gain);
            y = bsxfun(@plus,y,settings.ymin);
        end

        % Sigmoid Positive Transfer Function
        function a = logsig_apply(obj, n,~)
            a = 1 ./ (1 + exp(-n));
        end

        % Sigmoid Symmetric Transfer Function
        function a = tansig_apply(obj, n,~)
            a = 2 ./ (1 + exp(-2*n)) - 1;
        end

    end
end

