classdef NeuralNetwork < handle
  
    properties
		% Layer 1
		b1 = [-1.5755109963138236306;1.4300578420905034616;1.2958288842215901493;-1.2277215213066905442;-1.1698983000462723769;1.0007835392273276565;0.88806708596561101388;0.66646226861693980137;0.53659340323658299976;0.56704588510065268014;-0.32105757107030413744;0.20046231276993750625;0.073980165005623710339;0.046367256072096615926;-0.17930237043417421305;-0.38211599004225843546;-0.46075411548740285994;-0.60964467654674159292;-0.68543386915741089105;-0.74441758784411615757;-1.0156041473025476662;-0.97824368077477996675;-1.1892564100048266251;1.3091653049664995212;-1.4583215821285666625;1.5636164267929759664];
		IW1_1 = [0.17933912287459932711 -0.46313661413811418877 -0.52884513238378216826 -0.32337608618531710203 0.26480854466358083599 0.075938392867079040904 -0.50794136909643716749 0.23962167181148427697 -0.2299693035214167014 0.42672065029516809131 0.31146442893000880758 -0.29640768917340648558 -0.36160702721652759895 0.48896906195740169609 -0.2652354727570966908 -0.40626495124744427256 -0.1545222087088718721 0.26635087191878092927 0.054568562426265815324 0.27074173234921466991 -0.22945070087766092359 0.33942808746099772943 0.075946171601521492156 -0.32226108139343390135 -0.11344559728175612756 0.17080822569202860906;-0.17050105671177692712 -0.12812437746383359416 0.2439000784265768218 -0.25360712881910479899 0.12040100813062813712 0.26832811639939929682 0.099458151150668278051 -0.38757080406170707487 0.51779683746722116044 0.0807295458137715638 -0.082836276322047527887 -0.11171088026070108423 -0.30124773569021923159 0.074616322201243381884 0.48931904903867168288 -0.39451834737648172613 -0.1216477613422114884 -0.48713513264586383311 -0.33143744235051258995 0.065022662751619011989 0.63680294769740086736 0.11347967997388379302 0.30573916856433908107 -0.30301124741709684063 0.23126789113350232352 -0.61267656950102056257;-0.2050177497876972954 -0.43238782038829981502 0.27978531004247675362 -0.063905395940567169544 0.30598448045006215734 0.34184935576813113567 0.31171498944369091522 0.080198622215211790021 0.49822196776139882068 -0.4768482474845709973 0.29481295004524182835 0.33325214667854469175 -0.30841281627799332909 -0.02350956543488982517 0.30847197967288775278 -0.44604478708257500053 -0.40395799355204986547 -0.45102351208204793931 0.23316142184972044049 -0.1615582392001773393 -0.38453812800997094756 0.30554923401148398332 0.30127874883697547403 -0.10884071517522456163 0.38150096470691347017 -0.23281274606021484797;0.10713144041906111359 -0.33848471656586393008 0.238640182215166613 0.039271779471011791784 0.24093741658637382597 0.20277548590538277407 -0.31929634818765284532 0.53049219067070851885 0.31482834962241934562 -0.48566784960476594435 0.05393515593137734182 0.10092538028208337952 -0.36365532743530293303 -0.25424042121647666415 0.45778318489111141654 0.24038668546498606626 0.29592816566717361493 0.036249371287541173881 -0.31193617124501377136 0.47776502192674707992 0.20198774788361256727 -0.15472801276105185853 0.31696982352380370651 -0.20937158972047309469 0.61467287659584923798 -0.36058323404721032146;0.47850675571247441864 -0.4770491583275051628 0.016110250883297455582 -0.54780396478238579938 -0.33990808062290500668 0.17768385998616942345 -0.095175137962831113381 0.039911699119802815372 -0.069371309325475541407 0.48689509073088910185 0.45085395461402633099 0.36485803101280156469 -0.1530452843867408097 -0.4868602034496937736 -0.10080748823548243975 -0.40227079643952706745 0.097777610968998548979 -0.38891464856147395235 -0.032936933519335430398 0.20823878297369430301 -0.2358437821726367678 -0.23080746769016119435 -0.105951214268837135 0.34132531002486654614 0.18907634731359551639 0.36168316045042075979;-0.12929951695902158759 -0.38099092438262749383 -0.34410102044797619136 0.085192814240004743898 -0.12383642344675957481 -0.32410564221409043917 0.036234605732656709198 0.21581225911943849316 -0.72655390167050848405 -0.19142952716886829645 -0.23617095417010658398 0.47266845831486309359 0.39817780195195739967 -0.33044494596702117528 -0.12707487041634726865 -0.27077881481474508352 0.32164172664568307924 -0.21091549687149679926 -0.021547035137510731073 0.4549885923103437757 0.29119125235077975011 -0.17929668290669914521 -0.2143103126415190629 0.60744749299845945956 -0.22988962799868417619 -0.0090322890578063697031;-0.34957715074038175906 -0.32502262550775606886 0.21356534077883329581 -0.19256206448649423879 -0.17134949228515392039 -0.022594019212442521816 -0.44107989255728313749 -0.53669530314504187984 0.1866376955097444057 -0.16657876871869417568 -0.46146656024620563707 0.41123200170306251078 -0.010654685136433361681 -0.36625799789071672441 -0.17980850784422419686 0.34189535062465292725 0.32704769888938750588 -0.098121858689663388198 0.077546966571027733939 0.38099389393782023827 -0.33029605425657182494 0.11467095440779508098 0.3723547531609074368 -0.30550839004693253198 -0.4097304135324035812 0.25741549848581490867;-0.072380743816111550726 -0.31617928152862062596 -0.43392671066098725818 -0.37379267634745327875 -0.5758530409630175928 -0.60024754838360849796 -0.032903218170750432592 -0.26839711497746987501 0.077204218275485042566 0.39593583323332504076 0.13801661122409553117 0.040096714146730619288 -0.12614191272942587574 -0.01977036232213022493 0.087727235354869953499 0.0092183879729660495039 -0.56202774266836907913 -0.11925197369838215489 0.67055725540652666439 -0.2122796071108709326 -0.045642070075754687108 0.44448621927795928244 0.10902810345812782855 -0.33006936998064123623 0.16802334534796153909 0.1674241939903219345;0.029364520125084600521 -0.06963030552265228601 0.13884132432716767003 -0.2593984097864381333 -0.096476747816132052415 -0.15461070617772051938 0.1228494372136475915 0.20203608286436677832 0.83569387408681672369 0.0039794201098126702476 0.58682890224382100453 0.72090024432117250086 -0.21236010114391304371 -0.37886742815335999746 0.13996576523977938278 0.085265927055887313912 0.45850568501170163582 -0.18413423343046073088 0.29954757885031746412 0.21804756490775342725 0.80189935801646550217 0.024710745229295727476 0.56539971989566217836 0.075977961823117168283 -0.042782968487331284047 0.11942848733689206964;-0.11904732352982433374 -0.36932300262568151794 0.50727261686638480676 -0.29641207140789016528 -0.32840422927472356918 0.53879561495691496997 -0.25746901281540807149 -0.3820241410601502019 -0.32723285593038575758 0.041455482947910689273 -0.35549172007758672587 -0.39249945473924224837 0.3597539633872377518 0.3192938271530194605 -0.24590753914246779588 -0.18513776817598265323 -0.070373367872596334638 0.058650946437357798224 0.51090849753906719677 -0.069685913310895547523 -0.020491673766722867667 -0.096497354603469018275 -0.18639771589330578205 -0.16260483215275520208 0.44540660836599726968 -0.37973757217593084867;0.36187442918408119219 0.10590965351086986668 0.38882388272050744105 0.49522198216924762093 0.18703947824411118472 -0.2299924014320278709 0.36672074157968204133 0.24157883478697994573 0.091796942996516986413 0.229607848429407152 -0.073876436839794626388 -0.48857899024656487041 -0.098629067355487945457 0.15847828721417367426 -0.043327092565686932402 -0.065035836655402537443 0.2677055965536428439 -0.36501395355982235724 -0.28900454406156189657 0.12840948419740774722 -0.49743379983295926694 0.39602313117295934175 0.12797709362333678507 0.50987705312738207386 0.27814749714543551828 0.51859079868538093816;-0.14187557300988667963 0.38277340543028326447 -0.16981124790114218714 0.47475249411970682489 -0.1337900134006921038 0.0048262781763871304141 0.51205119328475068308 -0.033450116177275474039 -0.33304518964047569174 0.3524124578683161535 0.23279871413798994273 -0.25765830449971122151 0.34812431937794585668 -0.51812241168512984668 0.23115145862158265055 0.39470731731909636242 0.27675165724663386424 -0.30457030847315286204 0.045111908461488242628 0.29743702608603028725 -0.35231819045100193355 0.10362302508194695672 0.077228566067389745053 0.52184566669572762798 0.234406883631192553 0.40741767955007157642;-0.13846065157649922739 0.36217673955682816445 -0.32954654599512167579 0.31382534019832253325 0.10688133780066146061 0.33853253966750862514 0.28844394412898249902 -0.28365871504729855967 -0.054959808511954033605 -0.31087810232219181827 -0.51514785394317985645 -0.007166051696492113654 0.19112898057555624542 -0.39548028518145500465 0.64433226900955875571 -0.53099147131688850809 0.35791303892086262506 -0.22076893528686292179 -0.45891773787583428623 0.12830665692669776523 -0.28943655255760375455 0.46138623438279396938 0.25160555919793925472 0.15806416938280656859 0.19988978757128006425 -0.3787254026928152939;-0.1681773549114595756 -0.32713770873364078628 0.28116640846808171883 0.31711807269804626053 -0.26790171251970329447 -0.25191369022778248299 0.057796661938413741721 0.48522217077958201825 -0.235784006874928731 0.24121704586671377513 0.48047770587342342186 0.045856308608658628845 -0.22400793909180502506 -0.39911796233393631583 -0.51971370222287138763 0.17544976785375704376 -0.43340103111758609966 -0.2701722232496016618 0.38911372091905171988 -0.38607971887699571445 -0.13658554719758872475 -0.2862961504584052852 -0.43754598800440069883 0.5340183528446224015 -0.35226574036600666329 -0.057030767537909130005;-0.38103436839555626658 -0.023570548223270176846 0.43948903484047424639 -0.32935827458826405501 -0.51515751318662184044 -0.30416190946161858477 -0.22062086347897202909 0.38961291424170108044 -0.041660204461053784719 0.50113776477731253323 0.2712485452595401747 0.41551470146177715836 0.38308245463423329369 -0.042807612955821278122 0.21878551802767642886 0.37783097655842140528 -0.043059645506117301406 0.27499700893265510704 0.10399831694695700623 0.34669486073619570909 -0.27895420515751012669 0.34850751115423922455 0.0075943392634446795636 -0.10484581519485353107 0.48396065031730745032 -0.19216357723526478196;-0.32847657324521467581 -0.20192643470114635118 0.30447636387991994233 -0.21807382824442120284 -0.054263412157987675477 -0.32889491770934259351 0.19764767936144261862 0.20025406303523901608 -0.38275572843540073276 -0.63511859261468928128 0.037005554424647181533 -0.041293590297348511942 0.35776520520599541797 -0.47297436812305237996 0.19774830745220342565 -0.65566437348208794766 0.13701584229858052022 -0.24727633307554372499 0.31821389534838684376 -0.63139626100424639521 0.34235702416870589238 0.053698595031567528113 -0.15687560419546892065 0.1713626033946759053 0.070246653062104758014 0.21493603760564483629;-0.4226495190507991162 0.023902855406737512356 0.063635833225164348259 -0.32560709015089733809 -0.23943744976696132443 0.42153100343551730411 -0.2911768085253260141 -0.23807560110955677812 0.29262361833937350353 0.069728266708848504751 -0.32900886646980254113 -0.075727808788338707435 -0.028593838395075628356 -0.4899823395473961174 -0.031791500844577963436 0.16646123369583923357 0.46322478738734790271 0.25949874617937757071 0.50118486459910693842 -0.099208541560720342467 0.16500169843795267632 -0.26295357127929108731 -0.44334547308409627542 0.50241950886749686678 -0.44258455996572204638 -0.27568173799485046205;-0.053053244202399547913 -0.23904713525786150385 -0.31703381168100808196 -0.6372524807489119425 0.44419709153648390121 -0.33701879972274417785 0.35645241101857744193 -0.20911729938176867871 0.066651572548831486409 -0.11941655531439517024 0.0028810524643727106892 0.0024096778322224010616 0.39320432074860578453 0.41016779975178652151 0.541577143374807779 0.34239678482037061436 0.39576954136715103427 0.20991257202765753465 0.50615970156320855278 0.24658118065097731075 0.40464825210091270868 -0.062882615175649053674 0.38592175391728983369 0.14004667085089528289 0.28916972177256733412 0.13918974929287769582;-0.31487559474743020971 -0.53387723282679455661 0.45002520868807349697 -0.16424449409279881507 0.53903308540991645703 -0.2051849006710308454 0.26570150238446366142 0.41355808250659958913 -0.20074652425997480121 -0.17709170431157569836 0.0084801945650195692528 0.29325640328082513975 0.48194479448229010643 -0.31139632124321764417 -0.31694818254868095675 -0.17239277331814448213 0.36193511701668545921 0.32358371026380139401 -0.11956349709224502187 0.3970039370635130016 0.095685273353939157004 -0.12399330757918224089 0.49801642952854835444 0.39954998873796698788 0.039884799668830191177 0.062538618880789362264;-0.25794680311430440156 -0.11587467060868124336 -0.071726644072325859702 0.23891834380504134439 -0.17261666061544980733 -0.46720247834298317402 0.085796841632422876645 -0.57114961030391619978 -0.35785188408347284872 -0.33796264331845959905 0.47022490975119085599 -0.59634571696824412168 -0.13212799536224562047 0.26520544151315894599 -0.26732922308434131642 -0.50190868911825203824 0.091500627217473429198 0.38633308275831340639 -0.45636242660614140254 -0.23420764214351047494 0.40051257036298709702 0.08094346774498158148 -0.11727259672466651408 0.23570470996763565052 -0.42622278059752161106 0.10251226552806265435;-0.093406666534132209989 -0.36463504280590069984 0.48058441088290237975 0.10991242743131522663 -0.45674862874959998305 -0.029912663039134743115 -0.32497436187552741771 -0.037098563212091345553 -0.094354919210306475996 0.50262559026695463604 0.49332905563279128014 0.37363880489813072749 -0.21085626455295891635 -0.10020249629417049553 -0.04711447346021661875 0.41683797382105908236 0.062177242802359283802 -0.39208848738766099995 -0.0079189557008228668444 0.51392642710704539155 -0.41895847637532035446 0.44482769515860376419 0.40769655411229832609 -0.034633436006752893466 0.36685265258550225909 -0.17306163292321805058;-0.47826182719151405509 -0.58847506609826172319 -0.68233422383975650405 0.073389376027114691659 0.096427525413701239976 -0.30619961393083328094 -0.3662176804575028588 -0.35195486345174969989 -0.082255639979727249167 0.3703308219862589401 0.32167018864558777347 -0.48941376094516142459 0.081768864871918145454 0.036434057207677499057 0.18051432449911378186 0.39248840506559390384 0.31522504354378222402 -0.0017343500720677917926 -0.35960890313418636399 0.20241353324256242119 0.062303599808999757248 -0.54648680295633822457 -0.42869316410600960543 0.15372401865937382337 -0.18023617377474904222 -0.41295811800726911489;0.002159343200535775685 0.55351441718177063489 0.01166278138474409129 -0.0085578466946760883838 0.39001395864099885902 -0.32168376954622851516 -0.20668764563687699876 0.051553962469516281808 0.14206177009497272801 -0.36886376085909805544 0.17297345465552321775 0.039497364287694611273 0.40261826102855974296 -0.59010531475782945776 -0.26295869382243780565 0.2052155770384939959 -0.58362920206553936531 0.009340869015581966181 -0.3700451737173727218 -0.22065467285415371612 0.39509563534992525602 0.32141691330574834184 0.16439487315104850396 0.32577064375234832116 -0.34058146906866904047 0.065615981602556189278;0.2422605139417268183 -0.042252327854974562615 0.29061365122062815525 -0.23738380969457373304 0.54065586648993524399 -0.0050439333940543104595 0.37448522554534852125 0.61941116362479753388 -0.22780285457794824389 0.35886979995501494534 -0.055452089956132974424 -0.22652537070730677238 0.21503590647951725812 -0.46815608601020358703 0.263418131135647271 0.47370607921571822319 0.38654827913890321689 -0.18759750539151764936 -0.17239624042374124269 -0.388322035232663898 -0.27978733759513096935 0.36488412515403162439 -0.20673229463128300898 -0.29445567938374356265 -0.41325338439123560086 -0.14861419362783417908;-0.24918591413021687342 0.44732229291992758879 -0.31140587570694322483 0.0029238143674775894307 -0.42922171537952630294 -0.39802598481593820523 0.40137310415286314713 0.21027587506647324456 -0.33928166386251457087 -0.29371761398011297928 0.4224437929734995989 -0.12763360299477602422 -0.12012096245502018599 -0.39549651346362019178 0.48446854779496956178 -0.29896656149582317985 -0.084739048623121870918 0.32216483504369408664 -0.3931514583431584553 -0.26230129390446843551 0.42080637244408158892 -0.14233791478345372838 -0.048426915049670761493 -0.098387139728247530179 -0.18783472023871169987 -0.3779098690252561954;0.35348240690836901789 0.32992414377800677316 -0.18084104304882070435 0.2842079777468724533 -0.0065009604479174185054 0.12983853836584854924 0.2519685516823012561 -0.13861400691582134725 0.051766406517098816076 0.6111896537824913489 0.012339899476278223117 0.22275111601258362759 0.30541398613025794173 0.093062308002119689676 0.50371643640190510993 0.35485250715571592384 -0.5720366020657775552 0.31499292000470668906 0.30742920712709648212 -0.12288326651137042311 0.39103852064617156126 -0.053271841796553476289 0.3808595240452047892 0.58693139907319535897 -0.30129323422980885949 -0.067645403587390476319];

		% Layer 2
		b2 = -0.038460102388002175011;
		LW2_1 = [-0.10558335510933894441 0.25842452956095884886 0.62828795210651255942 0.54255870408871342825 0.66382177385330631836 -0.84651793164341904152 -0.35983635226700477761 -0.23021367833086797683 1.1457211275578040865 0.31972236371449730408 -0.089785194426546463542 -0.32445235261101834645 -0.81245969547629148799 0.55668177156158837882 0.22510085447605299169 -0.68120314843122875548 -0.08790476887576993692 -0.66677496980600414744 0.45088649647682627064 -0.71986827084636084706 0.77643834489720509051 -1.0382869256597726526 0.62356565362398619357 0.48797794643924469193 -0.14679212544678182928 0.31470783544358077455];

    end
    
    methods
        function obj = NeuralNetwork()
        
        end
        function [classification] = classify(obj, input)
            %MYNEURALNETWORKFUNCTION neural network simulation function.
            %
            % Generated by Neural Network Toolbox function genFunction, 10-May-2018 13:12:16.
            %
            % [y1] = myNeuralNetworkFunction(x1) takes these arguments:
            %   x = 26xQ matrix, input #1
            % and returns:
            %   y = 1xQ matrix, output #1
            % where Q is the number of samples.

			x1_step1.xoffset = [-0.00178926862772453;-0.00017322478546001;-0.00147275514049646;-0.00100036711759949;-0.000867237443650502;-0.000727814842450202;-0.000906696215618468;-0.000769856744855544;-0.0013599182999004;-0.000959589676931421;-0.000969931517898577;-0.00104520471508483;0.000302735093903497;0.000452597534784764;0.000452597534784764;0.000452597534784764;0.00135779260435429;0.000452597534784764;0.000452597534784764;0.000452597534784764;0.000452597534784764;0.000452597534784764;0.000905195069569529;0.000452597534784764;0.000905195069569529;0.000452597534784764];
			x1_step1.gain = [630.603152642627;6904.68885652558;630.69015153565;712.995082560949;166.147975691182;196.137948545353;195.458926072576;218.476723993053;285.264132080805;395.136296972983;213.049175284599;203.986595035179;241.345653267617;36.824475136818;36.824475136818;37.1339245077156;37.4486187832047;36.824475136818;36.824475136818;36.824475136818;36.824475136818;36.824475136818;37.1339245077156;36.824475136818;37.1339245077156;37.1339245077156];
			x1_step1.ymin = -1;

            Q = size(input,2);

            xp1 = obj.mapminmax_apply(input,x1_step1);

            a1 = obj.tansig_apply(repmat(obj.b1,1,Q) + obj.IW1_1*xp1);

            classification = obj.tansig_apply(repmat(obj.b2,1,Q) + obj.LW2_1*a1);

        end
        
        % Map Minimum and Maximum Input Processing Function
        function y = mapminmax_apply(obj, x,settings)
            y = bsxfun(@minus,x,settings.xoffset);
            y = bsxfun(@times,y,settings.gain);
            y = bsxfun(@plus,y,settings.ymin);
        end

        % Sigmoid Positive Transfer Function
        function a = logsig_apply(obj, n,~)
            a = 1 ./ (1 + exp(-n));
        end

        % Sigmoid Symmetric Transfer Function
        function a = tansig_apply(obj, n,~)
            a = 2 ./ (1 + exp(-2*n)) - 1;
        end

    end
end

