classdef NeuralNetwork < handle
  
    properties
        b1 = [1.2633618130363903909;1.5054806968287306468;1.3384995172758831217;-1.3521399060677541382;-1.1291046949348522155;1.1337771397496079206;-0.97228589879730642487;0.91745041332661658728;-0.79502612206713985099;0.68999313083189528495;-0.67041736056456413539;-0.38177981818991552077;-0.36817620605152184821;0.28834132842163140431;-0.12535730822689433728;0.12604933922825639625;-0.056126823928402347352;-0.39760218630950183716;-0.15329289213202040854;-0.32955795025226702899;0.43371920393729856968;-0.61459227304326957686;0.61824713657637819786;0.74472347107542602451;0.80213666799751170977;-0.90018218190977361548;1.1160931783844281195;-0.8643709447247028832;1.2808441593389332525;1.4158355649289036116;1.6351753639793689121;-1.6194145671187962776];
        IW1_1 = [-0.39109069626269210573 -0.78540476948960569192 0.051500651705293547244 0.17859334634718201928 0.41758283439226157041 0.023593825212744903852 0.14492974364085367545 0.32214097506768535339 -0.33307513271071959027 0.38569566285593492871 0.89995224144632701702 0.38874994546816599161 0.56986376937299942913 -0.41740658132662644686 0.25407668048122894477 -0.24019191646096083037 0.086991198907232267223 -0.53397953182211876921 -0.070014937523915771189 -0.085175831744801283607 0.36983397594547900988 -0.14308016559592845462 0.46992932963272493474 0.70819203243430606243 -0.50269321785042220263 0.45691465935338620996;-0.026456939447947261379 -0.05749907666215448715 -0.2491259802185025185 -0.071561717506348099249 0.37368541208218641891 -0.47475930346419031869 -0.093318803203962533144 -0.59251201066261427464 -0.012113828671026533046 -0.049019111627632207251 -0.42971182367547067216 -0.30912718714945336407 -0.4125870011241228319 -0.39985496208715209931 -0.14211298129541943824 0.30369010415903213707 -0.44363244874848234423 -0.39943199586246402877 0.32775454136513049175 0.11245451584906965281 0.24882617875799256657 -0.36724895235991139586 0.37552484286489196119 -0.41534364857525063464 0.28081060721410638914 0.14236862869720462443;-0.13641817090735366969 0.3566498170495990272 -0.66597318257423532284 0.22703249074942893904 0.18148260195048129817 -0.35692532511349256419 -0.80477598213782564063 -0.92732418299186702981 -0.0083520318268571064335 -0.39757162899565323677 -0.2535441648405177828 0.15989322109128983884 0.52795525862563486008 0.45254378920595567104 0.088758106823628432624 -0.21585758931661064297 -0.066404224989892540743 0.06578846487063902404 -0.086988757230770666351 0.55015216097671892914 -0.0074638275056494556015 0.070188883677295837993 -0.46194842776787181649 0.23468438580922829084 -0.34190061161647455901 -0.16658446411003496879;0.26963012547126130602 -0.3218855905189514921 -0.046723288173449145644 0.052875810377068947765 -0.4332415909620701 0.060913929497855887063 -0.37953385890441543316 0.33965252371922383112 -0.048139647242136394956 0.12177698900209045496 -0.098694825548957421102 -0.4661325339382252908 0.0095850048803305370332 0.25636609114151370781 0.22949793685509398133 0.67783233455393598899 -0.42076685031055705011 0.44700456207544175813 0.19296852537974365505 -0.36675287097788916713 0.22037480149441424082 -0.384815903283898475 -0.25651376563208516668 0.0329323914113831967 -0.22396146047671963708 -0.34566066999307365482;0.4606466165729405926 -0.28607333854453914634 -0.27903491295725624255 -0.057107085549720451589 -0.13150151278396146615 -0.26885637748759988463 0.18433304497898453378 0.34462792733860292405 0.51607310557170327225 -0.2458691254942917126 -0.27099865055667687885 -0.40449121954323435935 -0.42319418804382963328 0.4527078440904423462 -0.54218329716074853408 -0.0033276211425618410292 -0.40936612544795458746 0.074716325141375744545 0.39606843719521672709 0.13503762091968601888 0.14630413196218630678 -0.015610358119150073014 -0.016209685625598668074 -0.48782966457901211221 0.48579912796845758916 -0.3620585555288008961;0.4701688670474967191 1.1853421678709425979 -0.020198737464691640664 -0.063310257136584960347 0.48497755443548024035 0.12699387470315631754 -0.1081528842089071879 0.45742670594707723897 0.14990271567408658404 -0.0047911760615925282417 0.006975477348114419128 -0.098284243033928464506 -0.30700421861038657001 0.48808893184614166039 0.33493663659205424876 -0.0018843792202392815015 0.29286680930599967576 -0.34671917927219658706 0.31920910407849972801 -0.39899139071794931244 0.59497422382010889397 -0.33442479657995760611 0.036523649786745278345 0.24000175973723045231 0.47716025128865469096 0.44152868317236576567;0.71578231198133490665 -0.0051816271289017584722 -0.40455913954782768416 0.3437938918862872284 0.17213054728597057541 -0.0099223739689628786403 -0.33125950603233922376 -0.35925359059077766055 -0.059032887172591551328 -0.6309716711864873373 -0.083499564815630866743 -0.14430030705322363649 0.31712575562737504997 0.21138725301033636783 -0.017264736724948263891 0.51653314977204389802 0.09989277195762757966 0.14004066492453909332 -0.35869630812743247272 0.24189042874002125716 0.15388411289069803267 0.37465891272703927273 0.017235871893313908787 -0.52745147958493265872 -0.67791056114725845028 -0.07977409210702719744;-0.53558141778132395405 -0.33816503052094859516 -0.23105766818333334234 0.31526454617930516067 -0.25297114157856454009 -0.015496578079929750754 0.022184578732530269018 0.29487991377414696226 -0.065872461248065755646 0.33841367812600725573 -0.21874497534115827646 -0.39369029154373702539 0.6443503728118733509 -0.46252154254924154886 -0.41942325469942420835 0.070311922632532261601 -0.41431110313428687331 -0.44547832511347540407 0.4501049171065827359 -0.44739841662198548411 0.26902829557250340642 -0.22189071374198549025 0.50167957477274882638 -0.43985548808795932318 0.62154411374407081414 -0.11223758836173625131;0.37386965168662650294 0.26114622539088461206 -0.29048425064271715668 -0.36476473954193228133 -0.41894538602000380711 -0.39295803359297931667 -0.082700754901149600706 0.30136592598289013711 0.44731457982142952545 0.14888514150503801003 0.04862558395447021814 -0.22008984849261201133 -0.41856551323335461356 0.033301482564591644575 0.40025925459215055957 0.39456527307902383717 0.43361160456697750432 -0.43801763531303505861 0.22096634565294606678 0.018055472707869460458 0.35498216709781976741 -0.030267629756847588829 0.16444236763560302061 -0.41624405080982385119 -0.096614293906798834333 -0.41366643792832341608;-0.339955599780514095 -0.23378088293351056981 0.23861347140714081472 -0.13287070456122840323 -0.25371982257075448297 -0.37905462784266319431 0.39100148289170350013 0.32941817223384256552 -0.029430962455112005122 -0.45247325608141475417 -0.0048718231239028523399 0.50137960026757344423 0.44752568825985011847 -0.4626790305302385109 -0.043768660622088902123 0.24944841846120313633 0.43652243087016662226 0.04567753286651330541 -0.29966901390017414153 0.076281929115398883212 -0.035981133490253558449 0.22845665848596583003 0.44613816067704070711 -0.38351355421874250284 0.0052405963037749350372 0.40364270245235128742;0.39167567809824171965 0.39921494642513849493 0.15734167776894086854 0.27469275204433862836 0.28582616138715727372 -0.50697747864030073828 -0.054483166459223873745 -0.016223845762095488038 -0.16506098938987837088 0.48800380291144140887 0.026044646442266512765 0.13166841872555590243 0.51287445826960698092 0.25874404935853229093 0.40828600859258118438 -0.28716953653910115563 -0.47670735497176214279 -0.1789078994817200341 -0.026232688715333615792 -0.2914635844019829447 -0.39415148201313437992 -0.4596723577605930644 0.15195940476563113419 0.2321870915321012363 0.23056172663348209473 -0.3558818225838525362;0.22112630383049597382 -0.43852443871939211784 0.14962438218740692353 -0.45201226055622500954 -0.085454868438060591074 -0.47978733398755940565 0.10110141721152611505 -0.18780991642653543927 -0.016617927520810024666 0.85857967748158048327 1.0747602659763282329 0.040070932819858309792 0.46240889728995276942 -0.17367998027667685967 0.75405428038768873567 -0.70517906609629388281 0.25424479020461154821 0.066230512455502030256 -0.095828794612617035353 0.0069300959399876196909 0.16419813456622656123 0.57919287503066896328 0.44959870338141549873 -0.51211282472106511854 0.077155318523865465408 0.10051209723572138155;-0.041788369437328443112 -0.30009476521532368887 0.061198489548505041746 -0.027835686211847749522 0.39468992520792878231 0.4948708428250263025 -0.014708389291398126647 0.55177823013837756783 0.44693457406660058728 0.25410576279603958039 0.36136160408193629401 -0.25978414318693532348 -0.10677434309245506516 0.33059106636389035128 -0.30506208620359070993 -0.16562938953145070475 0.056515382556049612028 -0.29090076175344653509 0.030429716440325410565 0.3297070937638101884 -0.50101267133381111041 0.29000265852719508963 0.39888216596002823433 0.50465221183556441265 0.60186933536908671094 -0.29718615761069933079;-0.50374534770113976734 -0.31285840206015486098 0.084570711604817827567 -0.28000074473012565024 -0.47264252110578408583 0.49529031831400616159 -0.27356426413560125388 0.13904390601621299806 -0.11044999182760029122 0.42869455436180187169 0.016460474555934464375 0.50609281802658301341 -0.095641436773243410085 0.32258984862738460109 0.069246874599552352136 -0.038695085742036824938 -0.54421340042813992621 -0.0047747478036830109591 0.18125794914825310578 -0.027198505543158821296 -0.53619353234368327676 0.14525579871447502622 -0.43667982129161342364 -0.3153711487171366179 0.0070608928782021160991 0.03637201502895798938;0.19670868522265425038 0.082595844791815323238 -0.1475513073928363672 -0.47689074280364890379 -0.48585367428839049131 -0.45911791977075544491 -0.37984738910359033826 -0.54562206225287646078 -0.40246487959801779954 0.12385022287800433183 0.13313616867358263329 0.18728967610497498919 -0.064843059606669348205 -0.23892934226952605714 -0.41586460431003102745 0.069196615585458878805 -0.28580166349025470929 -0.22049935540866849593 -0.32998957295474434792 -0.49425579448250606118 0.31209250695592799518 0.046466799124317330338 -0.49113222766954339749 -0.070298867249006288804 0.21251725512397814932 0.14875683047044155338;-0.083487715193414691051 0.48086355967311134041 0.51691225591382039539 -0.34385972241664897187 0.068860397416673546633 -0.46361682133120007965 0.097850017339407832639 -0.20045349291515174306 -0.080972499346542853305 0.4316598694544211412 -0.40127598478520165592 0.16619442189255886899 -0.44950604327114102032 -0.31889085081922430298 -0.36105402744574077722 0.39160353637466949195 -0.26633137457275879445 -0.52445495770652950096 0.3448319632744337726 0.091903535674625988494 -0.2763147345994627635 -0.29016490606168232613 0.40862061382768399831 0.16778047572929330467 -0.20029232078656300509 0.10209502164434543225;0.3601811436727895277 0.25569324678088012348 -0.082293837135752265222 -0.045189047939915842622 -0.24969327242981143034 0.20407652286259073127 0.12253583962034002297 -0.43230302580461027473 -0.50714769463383013726 0.30745528622648338191 0.4091472238291946617 -0.30809232885761428378 0.48160357963104760692 -0.12801143165845926819 -0.091691344240051250725 0.36519685350343783492 0.31276948163374773682 0.50858011932749291883 0.005645163948417906627 -0.28663434492915207397 0.23829325369399056989 0.41229876278812610524 -0.11941129318945421789 0.39942051802902928115 0.53074337814017080728 0.1465718049467567563;-0.5056599242309015585 -0.8212797277369855431 -0.78473528879921239376 0.33349110935334824735 0.26336847637371357811 0.28866252713684875664 0.5388363605818126123 0.05260101781539990029 -0.46872232526763024651 -0.37947820733133930116 -0.058459602175354223597 -0.053984032914571204731 0.11695471915733057777 -0.26070203204656844376 0.4037993186410377966 0.00013275613472561975355 0.42813700156771000715 -0.075853456835006383141 0.52959791043329418336 0.11923609819040995039 0.32739965623232797354 -0.020415514227624512178 0.29039456673359487215 -0.39442012926499470105 0.54383810006332822251 0.39347638299428000508;0.0010717527639679726853 0.33607702447670229073 0.23164727709030016878 0.021917698131813143081 0.47171203611348461182 -0.15524772817253662538 0.63068553801082904986 -0.44972051451749800455 0.21111410880429568038 -0.21797866723513206755 0.42746697486715340419 0.54507154794753487348 0.72109146659448286609 -0.11901226591843938607 -0.20815950255967707871 0.10994344488280773098 -0.48616172958798631321 -0.2705601966171961581 -0.087883512138773919875 -0.13292578508574393048 -0.57559582300883793682 -0.17358183332183513281 -0.2387894925742527763 0.40259776782748379897 -0.39853367899195435431 -0.42574127089284796721;-0.34041986444389482624 -0.7667804853102564433 -0.66642328267997275049 -0.46559200032631992139 -0.19492259893359537015 0.42960104358307343864 0.16475494068887661103 -0.41914067012996514272 -0.3589051037153641599 0.3981621340825372557 0.22898658641208358144 -0.5327734520858430356 0.34779066609869846438 -0.21586953996965307923 0.21434401718331744235 -0.18252061075414977021 -0.34937686472342183164 0.6228868819933872647 -0.25574478569505193493 0.24137233482497297277 -0.063811035709939151195 0.089914533847640559783 0.42835239941209501957 0.19747834782003131915 0.09634733159203492936 0.030033429781484453913;-0.075408562264051945401 -0.61185608472975017147 -0.46630118315821578179 0.47658327245120662985 -0.40642122177210127099 0.059421830394687971677 0.24281908569808605125 0.14173824138585644494 0.16632852359988875568 -0.0065601627032014402444 0.228679337289721063 0.40948280121186791947 0.16185006737203402882 0.32707831193595510166 -0.099271697129814817639 0.24143174560281877028 -0.036374193183791016237 -0.40114613048569958131 0.11896495632643652729 -0.64446176882571970523 0.17636750336446954668 0.18393719246712061932 0.45050530591606230413 -0.46745202797853807608 0.4093563194134838823 0.23794482892928245366;0.055816497445209195538 0.54939460753760993583 -0.21051761944010030647 -0.60969274777750315231 0.13524331810800901965 0.27856971658397811087 0.5678249851234561385 0.30832376932501687206 0.14289141502303109865 -0.26382689444356910435 0.18877852529806946058 0.65673620356644091256 0.020287226290169175363 -0.16512148289161418524 0.28340955400128531316 0.42605099878081303943 -0.41065723587438401898 -0.091082351163169067432 -0.066288438133901506077 0.19536016875855502506 0.23526896490673229745 0.22271811680968228719 -0.0058174145382044661554 -1.0106164240888464434 -0.08217576089940020756 0.34003728055711784917;0.74554785408473200903 -0.13548054669071907252 -0.026228978626086023318 -0.37499635916532869651 0.40154231886627000936 -0.14018444232620402845 0.0047953601836181530479 -0.10026223715253264335 0.59132159809414963636 -0.41307835220369892859 0.0066041241722942407855 -0.25433258758831467361 -0.29480081643009031778 0.062203325544627777188 0.30334963539149517597 0.15421889603867952601 0.37975253560275401554 -0.53559889383553882514 0.48947465781058480117 -0.01507567271823311017 -0.049049715937454815839 0.16034520953817046895 0.13733592533742289277 -0.39017330518107140591 0.32026446455024010218 0.50478170430215141273;0.40576069993790842005 -0.2207934662611195642 0.03523226321670651362 0.44532730673809173272 0.15017159804015955959 -0.020118648861180858656 0.12558368760795288188 -0.06346276670693894173 0.82655681835991590134 -0.3168622472786477573 0.10026672143746637178 -0.29527833843443507256 -0.095930178250304351528 0.067210746025489279121 0.24622264346852107408 0.30722571330428732894 -0.13680471029909707648 0.35181113583779233256 -0.56040103184004053105 0.62798186519949850126 0.85336887709483322251 -0.037630915216421520486 0.207048430852320553 -0.37546751665524052965 0.50894108937129967085 0.63077524647079452613;0.68333259219997199985 0.52810741596028210054 0.57620899343686682315 0.20096125192831237882 0.21183944743853680426 0.67337187972656509238 0.099305991962430534281 -0.086806634151099446028 0.55608784374226227776 -0.14643230462029474537 0.031380120714544101901 -0.23385602590112219978 0.49027878531334623258 -0.3242083555088948188 -0.56682270417618541014 -0.39564119564092364856 -0.34324701343307034707 0.46208391785302194155 0.15884510368240015166 -0.11499818078750251304 -0.23114272775232175272 -0.28579320606005237382 0.081902361917382579537 0.38907121784680720467 -0.19052976878512709047 -0.44763622791684637425;-0.27422369422984427256 0.07295318421256440089 0.12178987979237877737 0.010838079602656546657 -0.1289951708525350349 0.45704954238076800355 0.25645850690994625998 -0.245042281916187904 -0.48720521758700552351 0.32247297230940874524 0.42600429188462585195 -0.13240182847741485683 0.41107676296962303297 -0.27481289821342186341 -0.44721668890530252849 0.12916206246179959272 -0.5084739945246359305 0.046144656586238064211 -0.37236931095994474372 -0.30416711104197874382 0.23247524540869815568 -0.35693126442110578722 -0.49334304399901945937 -0.3297350854272904086 0.16456758473842103552 -0.51876075579657499048;0.27009686341065736181 -0.29818345064207807393 0.38124572241150561647 0.10601312598373659191 0.40190140004339858226 0.41404640612883286677 0.081966062961552552113 0.37830860577624714214 0.11657588050378878131 0.23985447827550454569 0.2476044403271400185 0.31198923424669311455 0.39393425416137733963 -0.43005758820857425961 -0.12711547676418821773 -0.2601208107728942287 0.35946882646369493486 -0.2837801682151702698 0.28082844062763406834 -0.38605160390937914849 0.25757174628359480462 -0.41468668118233725783 0.25989353884961663432 0.35565424202622436534 0.35811418996655375313 0.053982275835359458394;-0.73319578871153223698 -0.52207978221925488427 -0.65925119972737966645 0.30048488483072266497 0.11907946641619164552 -0.79000593459948820207 -0.65895482174308239731 0.41564813775250369909 -0.44974715626497990817 0.71655266077660662027 0.2804567229343708501 -0.51299900969178147125 -0.66878506753394639794 0.29790993233750495683 -0.34531723961552823754 0.41448827160610934861 0.2339426784108581403 0.24413999697354135665 -0.25899450145386604394 0.088357270168891124951 -0.38299443451316783626 -0.50467115741527557304 -0.19931345891825852368 -0.35746673383520638501 -0.38147329274165059365 -0.39138520921579456058;0.56745013635846808242 0.28453135846465332781 0.10623404435416730629 -0.63005391170582758509 0.46103491773721139158 -0.085601267445119116895 0.18066505115068687282 -0.12481896535557328309 0.27874988103285053276 0.21965932561979972792 0.031968852709692859027 -0.036924497776654942316 0.51311697761885022295 0.32425203016206327611 0.43429739786389220946 0.48892961804571605233 -0.48495329018264798915 0.21523648211191676038 0.10134348356828488946 -0.50775115585098595794 0.0744085228794259812 0.25310589189374527175 -0.48589350419990906538 -0.036256207621013364362 -0.23476701675175545847 0.11091610266276145935;0.34190541852409100931 -0.057572442695029452109 -0.0013939432059008800315 -0.0082539082195288698135 -0.35935513459161966265 0.25081345530995147186 0.50804463893337725722 0.2968116542634420818 -0.14747727161519982864 -0.15112574455206326252 0.1961148484183778129 -0.46174976367208864225 0.036984954747340696712 0.42505905096700608015 0.05413394903362192534 0.42900559379795427661 -0.14951909632845553078 -0.056641375823450919313 0.55180922530712228635 0.57358557262235143615 -0.19301447812465100107 -0.06018451880037051227 -0.057494931310102567745 -0.34965394005042826908 -0.31251635714990433357 -0.53733647142318263779;0.40383326989125545303 0.08442531587768507817 0.35065519694471003476 -0.064508330055931775715 -0.54088469369936753584 -0.57076119362055732775 0.028111728655682444861 -0.13595561856793539346 0.32096521690222618028 -0.063343439104425414143 0.36971317408652032421 -0.026270734175798227117 -0.53192903118037671018 -0.24496951387637114217 -0.028679813184610981197 -0.47036464915570475043 -0.057907588607436936978 0.41776263960459331104 0.095015700465699320931 -0.15469227223974837959 0.16215574401025859008 -0.45504282190319955692 0.18777470385079872428 0.21233957728905919482 0.17835461363306090443 0.061295499156823758657;-0.38228209800709050947 -0.018470160340431487911 0.23194065387334378281 -0.42098029457166363798 -0.35357844507415703283 0.19017075910725378396 0.21152057686523545454 0.32092008627354423611 -0.30655744810466939443 0.20486020750882893982 -0.11716237655702238518 0.090662703472721151154 -0.34805867994265937693 0.11007353003103181877 -0.61550015131717061845 0.040500613055409667718 0.010243135154947076437 0.30070323147606770053 -0.19862403940202688624 0.38904402904039647737 0.57698148397808890486 -0.4645595532785672388 0.30333760185713803947 0.12535249038551585232 -0.11814690668173490062 0.42787099738110584424];

        % Layer 2
        b2 = -0.17793463732987627179;
        LW2_1 = [-0.9285480502507598155 -0.40828307352693571364 -0.92967267299493938637 0.024198219173993153197 0.51855934098916256492 0.92676019851840318875 0.44385678181525073382 -0.74499171210486914152 -0.14334270431094595089 -0.076395446686773837985 -0.29887480294544982451 -1.1571727778354681249 0.60711929840820888504 -0.69396478399695316064 -0.36568581981331094166 0.38001543237491497429 -0.65922545850795966071 -0.94230547935627129164 -0.57880654109445406341 -1.0175261534854689316 -0.17248386715425326199 0.92987627814430484641 0.2844086328093560212 0.78783449119141091277 0.81628368487160085643 -0.33172339126907735007 0.2076503075990705216 -1.4896724239104197629 0.36330374500470041799 -0.22014766987213424398 -0.34878612284424997947 0.091280989640662626994];

    end
    
    methods
        function obj = NeuralNetwork()
        
        end
        function [classification] = classify(obj, input)
            %MYNEURALNETWORKFUNCTION neural network simulation function.
            %
            % Generated by Neural Network Toolbox function genFunction, 10-May-2018 13:12:16.
            %
            % [y1] = myNeuralNetworkFunction(x1) takes these arguments:
            %   x = 26xQ matrix, input #1
            % and returns:
            %   y = 1xQ matrix, output #1
            % where Q is the number of samples.

            x1_step1.xoffset = [-3.22916653158812;-0.329463153870015;-3.01193840951589;-1.65787049912354;-1.54459962738116;-1.09778776308506;-1.29514859782046;-1.13152389820481;-1.97346954193221;-1.29275388780677;-1.33889171423637;-1.92263680088106;-1.38458863225482;1;1;1;1;1;1;1;1;1;1;1;1;1];
            x1_step1.gain = [0.348598173855201;3.77701571082345;0.315340381808875;0.360328925991525;0.102437305725514;0.120308171109436;0.119246000170806;0.133793794552212;0.133658505078036;0.134393178040018;0.150518164623742;0.139932750804816;0.155176817078316;0.0166666666666667;0.0166666666666667;0.0166666666666667;0.0166666666666667;0.0166666666666667;0.0166666666666667;0.0166666666666667;0.0166666666666667;0.0166666666666667;0.0166666666666667;0.0166666666666667;0.0166666666666667;0.0166666666666667];
            x1_step1.ymin = -1;

            Q = size(input,2);

            xp1 = obj.mapminmax_apply(input,x1_step1);

            a1 = obj.tansig_apply(repmat(obj.b1,1,Q) + obj.IW1_1*xp1);

            classification = obj.logsig_apply(repmat(obj.b2,1,Q) + obj.LW2_1*a1);

        end
        
        % Map Minimum and Maximum Input Processing Function
        function y = mapminmax_apply(obj, x,settings)
            y = bsxfun(@minus,x,settings.xoffset);
            y = bsxfun(@times,y,settings.gain);
            y = bsxfun(@plus,y,settings.ymin);
        end

        % Sigmoid Positive Transfer Function
        function a = logsig_apply(obj, n,~)
            a = 1 ./ (1 + exp(-n));
        end

        % Sigmoid Symmetric Transfer Function
        function a = tansig_apply(obj, n,~)
            a = 2 ./ (1 + exp(-2*n)) - 1;
        end

    end
end

