function [output] = classify(feature_vector)
%CLASSIFTY will return a real values indicating the probability of the 
%feauture_vector corresponds to an apnoe event or not.
%Output value of 1 indicates 100% certainty of apnoe, a 0 respectivally 0% 
%apnoe or 100% NO apnoe.
%The feature vector must be a 1x26 element vector. The first 13 values must
%be the maximum values, the last elements contain the corresponding
%indeces [[1x13 = max values] [1x13 = indeces]]. If the feature vector does
%not match the required length, the classification returns -1 indicating an
%error.
    output = -1;
    if size(feature_vector,1) ~= 26
%         sprintf('feature vector does not match the required size');
        return;
    end
    output = neural_function(feature_vector);
end

function [Y,Xf,Af] = neural_function(X,~,~)
%NEURAL_FUNCTION neural network simulation function.
%
% Generated by Neural Network Toolbox function genFunction, 05-Jun-2018 20:22:06.
% 
% [Y] = neural_function(X,~,~) takes these arguments:
% 
%   X = 1xTS cell, 1 inputs over TS timesteps
%   Each X{1,ts} = 26xQ matrix, input #1 at timestep ts.
% 
% and returns:
%   Y = 1xTS cell of 1 outputs over TS timesteps.
%   Each Y{1,ts} = 1xQ matrix, output #1 at timestep ts.
% 
% where Q is number of samples (or series) and TS is the number of timesteps.

%#ok<*RPMT0>

% ===== NEURAL NETWORK CONSTANTS =====

% Input 1
x1_step1.xoffset = [3;1;3;11;4;1;1;11;3;4;11;1;1;15;18;20;15;18;19;14;18;17;22;18;23;16];
x1_step1.gain = [0.0198019801980198;0.0198019801980198;0.0198019801980198;0.0222222222222222;0.02;0.0194174757281553;0.0196078431372549;0.021505376344086;0.0198019801980198;0.02;0.0217391304347826;0.0194174757281553;0.0194174757281553;0.0129032258064516;0.0132450331125828;0.0132450331125828;0.0129032258064516;0.0134228187919463;0.0131578947368421;0.0131578947368421;0.0130718954248366;0.0130718954248366;0.013986013986014;0.0137931034482759;0.013986013986014;0.0134228187919463];
x1_step1.ymin = -1;

% Layer 1
b1 = [1.7904701132466831481;-1.5287723658955882922;1.4814681284184714194;-1.556236004932252559;-1.303699144633745588;1.3281561109943211818;1.2590756535482814371;1.0946506495233103706;-0.97572936389758391229;0.90659212320930160356;-0.91287510977318908623;-0.90300802974190264027;0.7290488065228155623;0.55700479435204741652;0.45729545350199607423;0.37206959605271605618;-0.33145107420424446687;0.2252179790883688526;0.11712783783554765737;-0.013206132001589491326;0.033511922491365357668;-0.22100888584636324552;-0.15757578960389265199;-0.18879670403224638187;0.51526057723276463829;-0.14675060263392072923;0.59587679554873929089;0.5846365972088776175;0.72085791231785234512;-0.73804456740004320547;-1.0836292683873023357;1.0239227957625529619;-0.99386337065119312317;1.123610484998109893;1.2125535605171018361;-1.293968971907002885;1.3844388062238248693;1.4422720596799845083;-1.4835339399848592734;1.574542857948641128];
IW1_1 = [-0.41436375761118254824 -0.35773597322586275782 0.20897041239569591475 -0.27489322080699873929 -0.26346780424208993132 0.0030626742366546208518 -0.37069500809873240366 0.40248681687586240763 0.42470590962847198924 0.3704816137728906833 -0.1640622336520702329 0.035785925639824828215 -0.34016287523736049581 0.16129318531035791162 -0.18924811423909809749 0.048094887122390100886 0.38121289997241059044 -0.11284442516828920022 0.15764400433773104182 -0.23623321512194994654 -0.33803153288980519742 0.094416582323075703975 0.41990949060916865632 0.32944207196250380187 0.19455698371473681418 0.42330597657721691363;0.35458044668464344662 0.016738239943882324973 -0.18157305765313794255 -0.4823481545465769238 -0.40939518034350358411 0.36810672844581693308 -0.037719327360265862692 0.33415161547157867794 0.32113419542473720103 0.24183192612526108189 0.3279654711675016876 0.41371324968251144139 -0.021934490696451029723 0.087767334563532597991 -0.39466057102833446146 -0.43328977879997948586 -0.24458293034627889839 -0.10210021125160170796 -0.33986725136995032948 -0.35255281400213767107 0.29505263794147196244 0.21679596015007382426 0.23691715987251391051 0.4185144574628283376 -0.2522341817873183234 -0.062889028302636582057;-0.23708524408644851555 0.5374223938890160257 -0.11427358727163988705 -0.36629632072701900913 -0.17337046991737409263 0.44179542394541659878 -0.068255224550369350545 -0.26297657614520741909 0.33248801910093978007 0.051159141213895496791 0.41346396732736273583 -0.30246213646100311712 -0.52638322658953107247 -0.11513974390238172762 -0.0067478054846317418042 -0.18309713272342287294 0.42980122053917629854 0.27414893245643834341 -0.42984710478694221347 -0.34647814497062884298 -0.098899433382359694389 -0.1699573214573629476 0.085440371778222432009 0.47597859112066193132 -0.35774897351602791273 0.3060982431471167553;-0.020345508503348815749 -0.37650278700071565519 -0.473182218393409737 -0.15429131037083823608 -0.38788070233994764724 0.063951541581308349316 0.13559459605092702428 0.095329814366639287204 -0.66084334968913016617 -0.30721898668953473432 0.063352100832838237343 -0.0032635910300192081876 -0.27813733402608636913 -0.20175655481025364657 -0.014429944293204748779 -0.036416095395344572072 -0.032939179802715504164 0.38750210521985972711 -0.40521081992507718139 0.025754503793406720302 0.28059666403600869167 -0.41670974921546899417 0.18519213367537887271 -0.61912316911441089839 0.083929015922196925636 0.30267129857931818204;0.087529314772175362269 -0.30578921955480042882 -0.32571619934760132065 0.54908257199424559403 0.085413087254942787752 -0.20011838370572482271 -0.44086108226014508737 0.33832510279073774173 0.24940714801136412704 -0.23850582855882387912 -0.46934152238655851841 0.37603192968715298816 0.40205323624993899445 0.52871277376676439896 0.32077217255021217568 0.34080054954479921392 -0.14199460252301554508 0.33359504160777087023 -0.3974427550129004949 0.12384259880224303407 -0.29464613830330610433 -0.073278045199916888586 -0.28174226000712004891 -0.040214751394239182936 0.13013383974132747278 0.54015516349384484762;-0.1512558153571505748 0.32241578889659633367 -0.1921656557098752327 -0.021657240127895358711 -0.10890946371555070005 -0.14183149026822769456 -0.0069697090042649696012 -0.098391108171186791864 -0.38492834946078025027 0.3991264671954429244 -0.27849238173046486633 0.11972752283899693038 -0.24549577478942705144 -0.30283556238831138563 -0.013186699038500924314 -0.086601351848665741873 -0.066816252031918071941 0.58857043959078692019 0.5343503845686662368 0.47897561617006140233 -0.033847637762025914454 0.40928975983504189973 0.35804591014538894589 0.55540540585530084883 0.62115786996669952735 0.15947536943901521878;-0.082837963121053917459 -0.41550120239761562102 -0.40195078201121753336 0.19468157648886796895 0.51619606377683124876 -0.095963107406743922145 -0.24045783916560753424 0.50416752746973458876 -0.037292796699896602064 -0.45951459026432617261 0.11930313327650979294 0.49397780862906454091 0.4480452464469876217 -0.44362315910032479316 -0.38275997213811979725 0.13317830153062604204 0.070087217651287989084 0.18187285285341064922 0.42560257372074145055 -0.16333672943330099225 0.19917262547215830448 -0.23472874366099236165 0.1436896624098115971 -0.053065688240227434913 0.0038312807897816830369 0.30800911809782577366;-0.29565060803884329887 0.42188062860353681138 0.25877472096222758902 -0.19909635186201082857 0.31760221645743264007 -0.046754640107886921707 -0.33692999358482783601 -0.58558867236091360908 -0.41786152803461812377 0.2383704265265357003 0.57610873953406860348 0.19996904657785558035 -0.26065451103113568276 -0.042415230935733912176 0.62719770502007787805 0.3725007605396684629 -0.34846616102486122069 -0.1607854268844204626 -0.18341577941471265412 0.24849636406705227776 -0.31482506983737823525 -0.2212739040195814133 -0.1510464121317419417 0.11773956634599601345 -0.2881581372244370054 -0.12534620492577602802;0.48755483950863875986 -0.48542510536098565366 -0.32679807019959167258 -0.1016515330630145264 -0.068546735822666418625 0.32483769080548896557 -0.52384631925605396052 0.14205099409477200956 0.49070197868689680032 -0.082737054185186731381 0.092866700363050128098 0.28561039024642687068 0.19601858803213770277 0.47633312012163159244 -0.036919475128906302508 0.10513454884536248268 0.39996994853581802065 -0.2580699969613315381 -0.23152863247289109938 -0.4980252193454733356 0.16288247934570640463 -0.063252144994449421844 -0.17035737724245075819 0.16907089505726477507 -0.27438439442590673023 -0.45952425247400441322;-0.26496904188161296556 -0.053252050628495001261 0.11149770123362127972 -0.52123489642757059315 0.14896798271766070743 0.54017902210955381914 -0.12432284347216515652 0.19039594228003384191 0.42200092748119660824 -0.15310840968503935944 0.48023575167564286348 -0.50308822606411962575 -0.35946953011770316211 0.33075914477482953879 0.058458734782082945325 -0.13874477667280737947 0.21338597383071342128 -0.052437602121685036871 0.51598904417968283198 -0.11430914641064918169 -0.12441802864879797363 0.39232365715690575847 0.23010728998195437156 0.47229867389844570891 -0.17562629386750733262 0.37225786271186978027;0.30480324776749501137 -0.045673358474952144292 -0.46309018357236764185 -0.48255104754161554093 -0.28722846633445542341 -0.098378597222781291598 0.37018932677292570865 -0.061748129495259179711 -0.033499873826162589185 -0.56604369264566212205 0.11259579447157203047 -0.42306568931765115016 -0.45209352741834801792 0.25349774701397248533 -0.32595229262924885205 0.23080734885500642228 0.45755187259130292166 -0.083604499996594985878 0.27512306111948492404 0.0021598426174071400953 -0.069159507422827712353 -0.42729006414226622379 0.22897979055232259293 0.30821822455964037468 0.15878175906919081428 -0.25037629349247964017;0.056093328194019194399 0.10318442188165478923 -0.14369678438558483591 0.4855278971068410776 -0.04413364627829591269 0.56840355645765738846 0.2289358801844112723 -0.40939521067063361359 0.16030010133129724004 0.043393362101195473435 -0.19022295680746051372 -0.35847792771819342317 0.15737133431788266624 0.51198536924174198326 0.11076196324388919157 0.34611343611799960662 -0.1852967260494378654 0.38094633343885425658 0.4004372541357392179 0.42088681440683872736 -0.19799885882736745213 -0.34327975154143869352 -0.16746958523211949443 0.42434513771541559901 -0.087967854992606828168 -0.50326715794154186501;-0.34742408922013445771 0.12875410490063052271 -0.19666538798574503821 -0.16881953015224746006 0.14807277203657742692 -0.18752650571806570023 0.03237525788741416749 0.36920371397365991939 -0.36943994222792592153 0.23775330443193218311 0.53203516743764656116 0.22219786562967513976 -0.18701415000026125335 0.07690069500967684768 -0.1418245745178959849 -0.1571763430127111616 0.56167627806813313907 0.57100640118859857797 -0.45039206939518094952 0.34462841664267079844 0.0046474182868619373643 0.037711069914215467058 -0.50540099102155133792 0.40232601187746791505 -0.21736201150096329249 -0.33831404368987388898;-0.048895947983062050535 -0.42211085110041557389 -0.10236812963753830208 -0.21169520159372723356 0.57105545802080259765 0.53916045254129507658 -0.35194923660185750691 0.4554764231227988458 -0.27506665332603641438 0.39937586743116132437 -0.097784554810678533943 0.4300457325899647576 -0.070814410988773238143 -0.053274027068079689295 0.21689940063625909317 -0.25740888137894796239 0.39363424355629056395 0.30571752601804380589 -0.27085336040762930665 0.21918389292400719537 0.10423430608829289956 0.31715612921322522411 -0.29379396443900646085 -0.37699332856963807536 0.37537916770163409774 0.36823853835702730075;-0.32110394679163023479 0.54693076205883972563 -0.09948143958662175601 0.5752452068397256868 -0.23864014498948640797 0.52812751334372776135 0.34927517265625585008 -0.16466536739694451197 -0.43701589352369596408 -0.3858345199648872681 -0.24499709826081664255 0.31556007956212561716 -0.33436777701740311164 0.31763407345215161071 -0.21005146641251953854 0.18735759646793012645 -0.37154798420310625184 -0.12708440326376643781 -0.14419452729976775518 -0.3616326250258954933 -0.13094841940095819366 0.60225481520990697959 0.24781327879909448297 -0.016283443336196745665 0.079096366865799752621 -0.13549782312175456811;-0.17614365986342075954 -0.041480618399598247203 -0.51334757589727120219 0.57081776267817130321 -0.30399146358463641215 -0.1026964937635033992 0.068328351728498035178 -0.2535058817116760399 0.20518749969330385419 -0.23499157843183968164 0.15559071150028941366 -0.49881149703585925259 0.26631075700271217288 -0.10164747974443086309 0.38016821808161221918 -0.31576787611540574341 0.26438106687851298249 -0.45760065126275806247 0.4115576379759336989 -0.21566675679207439331 -0.44869500188233685245 -0.18964675927435259428 -0.27147436265455815452 0.32850649559101158248 -0.47812590432694579423 0.1413328237001853227;0.32074488206467005602 -0.32544158215060703387 -0.35824114399345263759 0.33854642664023731902 0.29861428550331325926 0.44406146150607078704 0.095446289045694632236 -0.2071233527664105567 -0.44551673557326026964 -0.35336751467946159178 0.0078775543226301397715 -0.50708910004763663171 0.39290645378108501884 -0.58094410062802448458 -0.19703543671146581118 0.07296361636225640046 -0.17489313303765741114 0.37050638316548129003 -0.18932340607260148002 -0.27735465627903604924 0.13054982426912592475 0.021610425278371037106 0.27319500359004134094 0.063780009647516663907 -0.23443130604358020097 -0.43261407171602633825;-0.16061733464935212812 -0.43509077459924100362 -0.49393156789406073015 -0.44338156593462796362 0.38142987700546115981 0.4421671129715321058 0.4202824180244971175 -0.10688247288967100967 -0.1799180156108003692 -0.039920122117806509932 -0.0066968694096639375807 -0.36311921704887845097 -0.10711343385347452117 0.33177121679784860042 -0.068424437711941149542 -0.13955740751358239327 -0.49267215069314218567 0.19364448152244004286 -0.39123890362500801654 -0.050661695938190309807 0.44826510075168435332 -0.54206672697834035191 -0.22577241667402045411 0.25143529148027793374 0.07041724332173421308 -0.03603466583883378066;-0.66053041830397285494 -0.054261484416825489507 -0.10991360032103160427 -0.6112534969948796304 -0.59403100061030933432 -0.27647315370489994324 -0.49354176357490220362 -0.61029496167438301857 -0.80907871188032953746 -0.4366407778485734692 -0.45197789141778094146 0.26613674858870423057 0.34322121828252127873 -0.085526219530067365548 0.28335405711932459827 0.055852573821229468953 0.37106559183567322524 -0.13229269455083345064 0.30870997694515173171 0.041340151149013883158 0.38567135210384140276 0.66212676896218114475 -0.053645187015443657197 0.26705871833675243199 0.3506925816039995758 0.034653248465614440443;-0.42689823162506368437 0.59316345925669222705 0.0066917820957157750014 -0.37435295470821078334 0.25091372423086355514 0.1062337810311182601 -0.66430483296528941572 0.23305896524700669969 0.087723887252819404692 0.57369355918843623066 0.41995184305202576391 -0.24840402724494065057 0.091912124908695935765 0.47114486620489831603 0.074264576717765179437 0.071880165954421218477 0.090179914036564348678 -0.17721313532102969668 -0.28642887521900350922 -0.092840245765892115415 0.21381192681132724087 0.098536876159672312503 -0.41252706955003148881 0.30761777324000788569 -0.20693875604723180328 -0.43040210359553415786;-0.14628385690483924897 -0.12606412067373332087 -0.34396359369922374638 -0.27881098092026429525 0.53610615625643343041 0.49347849973206908691 0.016269192440024973084 -0.35172968480797228708 0.35198694891941995078 -0.079504908794392425975 0.41598472996391827605 0.12477496497535139897 0.44170697075058495962 -0.52772288320791926886 -0.38269849742978989671 -0.32705828547678639229 0.23821096949117243069 -0.033490568324383081233 -0.18993098089431845188 0.10998412928135434252 0.32327542974997974801 -0.4324729740359593011 0.34177830623700389268 -0.068318325355223794015 -0.42940923290310062388 0.26537038918715599722;-0.41477798907336482781 0.036588744534347641957 -0.40194613876087820215 -0.57986124478410439043 0.28201218174653280846 0.014821735806546413802 0.15147652489264043507 0.14015498382926436238 0.29879860511279887625 0.14220104782197026672 -0.018744961810848493472 -0.30189717762436746318 -0.35907855614973255287 -0.001972443942871713804 0.039306299586259980938 0.19178745983662007224 0.23669191987347618089 -0.15922591566694327403 0.022360616677291115378 0.39742748688697793202 0.4146061245061161693 0.20652119035493263222 0.44374634573259957859 -0.35170726148834552394 0.4983754504869317703 -0.41593608914535284971;-0.47071809272407177938 0.30119598840292655106 -0.38243753113070555472 0.51374136643975554239 -0.036665154594823168299 0.44202864465722063736 -0.1324958501725534421 -0.3302863023843148893 0.25181222911453593483 -0.078951659234286153399 -0.24809927345440876967 0.11484916845902909399 -0.057089440860148395196 0.10197366629881657318 0.4901688692893656496 0.001223016593087367359 0.41464345213415876312 0.088014597124978943832 -0.30941799025961230774 -0.25451956802004316316 0.42141772483508710412 0.27420723857335738138 0.54418096712239949486 0.208304277992936826 0.2652380078087471782 0.3854382022987781764;-0.44239087875825050533 0.080162731911481516223 -0.42722406568163345808 -0.36657954994799618609 0.030359599851261062642 0.47879929342878935206 0.44107370831956188573 -0.33524359871299014291 0.44421528675007793119 -0.3029402947672319435 -0.073871881202851999437 -0.28571454330669876498 -0.035616531708743605356 0.38314210096393735983 -0.35928399432761198851 0.14117974733819024791 -0.40726308853682896549 -0.41914493505815575425 -0.37891481590246101074 -0.22397644078788281341 -0.35591138103279229554 -0.046430107319494484663 -0.3149943985489552789 0.13676349543010432597 0.053005776614802560531 -0.26595347662325091731;0.52416301537720988435 -0.040615590590182701347 0.27521216983502744258 0.52156335325235003708 -0.46537310528019665279 -0.42642614001615147812 0.0085820558181676307591 -0.31718420074759712257 0.030590040755617858848 0.034358411648975475949 -0.25823329615645629342 0.31754036405887481331 0.3464624084653621372 0.18721441374269409685 -0.30747607784020847266 0.027006546348751405556 -0.2855946855907975368 -0.099553572329674933084 -0.086087810139046511138 0.30463189905791404621 -0.54856794475177650394 -0.17142680090492781741 -0.1737913286964039572 -0.32718320148730151153 0.46887124205686719902 0.43399070429688418882;-0.55817559498852598043 -0.3496763832159835439 -0.404927975080559166 0.29745261083015483994 0.55133882357210828307 0.41925583418335832242 0.16171134941395298723 -0.27764438194565210782 -0.20747122563350278712 0.38776765127552748069 0.21606375492556292861 -8.4487217077399993296e-05 -0.093432035350361791748 0.25232495187239911694 0.068441745111512297672 -0.09955248785343687179 -0.015664588056570307589 0.2974369742047746068 -0.12983277497099168785 0.30794033078818577875 0.32908451886194384217 -0.37821838111564071161 -0.13282928598146295784 0.34693795760860091093 0.72777150383423483415 -0.32148959084929151775;0.24489908441505933712 -0.091070046987620112411 0.19345491656525681812 -0.27539980540416969523 0.58158278553094278074 -0.33152888932785579135 0.12686221466217065257 0.33825162229149408066 0.29837465888454850482 0.17859636000886072726 -0.11333739040025588019 -0.15759289368882739568 0.030120708937422569634 0.19201923508334059476 -0.38290364219124156664 -0.46046134963727941569 0.040980338810873172262 -0.42144685789530006437 0.42118281501261534139 0.044429958553815554478 0.041986793945951200735 -0.54193990019832583016 0.34866746258111225298 0.36885161547725342501 0.40419487365338385709 -0.59608258569759231538;0.50589297653449505354 0.23275336882456740262 -0.078487632930052356195 0.38369570554576770682 -0.489528997868555249 0.17691118952161488664 0.15926725213584794205 0.10358771065456813532 -0.23213976942361752576 0.17121387077064931237 0.22561595502665024449 0.085121361158404656999 -0.026957560104530965683 0.31783916405240625336 -0.15838356311734547166 0.39219062904830498395 0.43958769706068895333 0.0058249453147314949816 -0.26656567373482897843 -0.34757898993182317904 0.19783044356815607245 0.50172575687399334488 -0.43395060698500093066 0.30258395029609930216 0.47619793303823199082 0.3518963006732106491;0.46184936029599277241 0.41720288071198030622 -0.11856985828444806252 -0.21891069076230235124 0.38782343186887552333 0.27670652676131018977 0.4351858985557763293 0.51828618897948197652 -0.038395331931575148177 0.17020878427162078328 0.34768221693386941462 -0.13756012774262796339 0.55065395671188654969 -0.1383668875224171313 0.28256776865288696365 -0.39534554349409228857 -0.39264146793225274124 -0.057146571179208689728 -0.59795449057672866999 -0.62926315488995987479 0.076051656576024681544 0.38774594007399182383 -0.025644963119841757831 0.48431156498556571233 0.20019582195847213102 0.088328533061706793195;-0.45240588982304080767 0.18827411726509080125 -0.067131389309503824991 -0.0029443042533594124613 -0.3299111737144466705 0.38088474324482124445 -0.35187824962826103059 0.30878763671516834544 0.51955469863661973839 -0.48367987551397068069 0.098536991551118127686 -0.1892250509161668981 -0.51301163269984184634 0.63183143810743924718 -0.098946694201678384029 0.29168924774910037767 0.49677556991632787486 0.011912500690341771073 -0.13815341395550417847 -0.23121506100581817877 0.37809075564412725212 0.30512867757270500935 -0.03833239150765920672 0.068693213987360654538 0.18057031799556849672 -0.47629800762646107293;-0.38621136265116429165 -0.39020364786025885095 -0.4907980776330476691 -0.45622531746664529706 0.32244059525378782061 0.18547290781084072031 0.40083051980329775787 -0.22752959955900142752 0.28925278678614829708 0.33340242938620118229 -0.21768903818280560536 -0.11243189268889927646 -0.53343974424378282073 -0.050963866766365460703 0.087136933603156607742 -0.37758715469372683415 0.22513067102713146816 -0.15719176527386308218 -0.34118221176038615594 -0.45787394371934408976 0.38333976660367985456 0.17060965360754284936 0.026108727132991657593 0.33535484846007179716 0.060538870605937371294 0.15096415012884442652;0.59225001788913123058 0.61339117122733888277 -0.067910104292215167643 -0.59570463567135367722 0.37674553266134258589 -0.48691340139260236297 -0.28758790544068041362 -0.40224698161073285663 -0.30819353271516786164 0.094511460268121502692 -0.32599118978824837001 -0.022638559196466134099 0.40356570832928773118 0.31152968015160892312 0.14393374812028167375 -0.076396102329084225602 -0.35329941001425807512 0.14147910340169211896 0.21037994688131525511 -0.18532653509489674382 0.14364123225787614468 -0.31595828717437135502 -0.019714713857178177425 -0.38091122486926975999 0.41297069396289287635 -0.41461316382309681972;-0.37166629428922975942 -0.26554002848791818936 -0.40866869549514706073 -0.062093925521617819585 -0.420590618234083502 0.39901704483492506093 0.14240669725202012574 -0.3161191606310864155 -0.059147427240913243163 -0.44835924375520008756 0.38282162147681614295 -0.311320197981265534 0.11196773089497176479 0.050977122686212406055 -0.0460121122914139008 0.43683748914951792131 0.48656586959605074849 0.43048431025859251742 -0.11424026348415532162 0.471082656975111147 -0.38062786019534017301 0.04006974126085444815 0.042855101145828682074 -0.14506265104190091408 -0.31029722159057920861 0.39277494674321228318;0.31195917781534177049 0.18634811306804138775 -0.1831620634177425766 -0.51594375720112517492 0.077740454190735427953 0.0021126773467926660693 -0.060902620536009512142 0.41760732947673068205 -0.34726102403320813217 0.18084459233200375627 -0.48654609912966068075 0.12238812549746765079 0.14112954817492037729 0.037795068283837857104 -0.50496933427693169172 -0.21478849527908455697 0.44200502698959109882 0.31218850884373772203 0.18635901252821052143 0.39650155182892643513 0.36328933989126566129 0.24920710907158433178 -0.53869241600038964002 0.19911886536088588273 -0.33901668661454031906 -0.016642666922236801219;0.088738178657382787984 0.49423472294590209408 0.48235581470157218309 0.37345607578017414596 -0.31459083529479642261 0.39361883513441014992 -0.4483053945862888745 -0.01235086421618176479 -0.17275583818172621231 0.52761330572198217315 -0.020045811873371229689 0.057551525566136747802 0.17474883335871416179 0.55085024193904008616 -0.37937570170953449633 -0.20456672047375598633 0.11186617853778461906 -0.2557235676389316148 -0.073141252316833355041 -0.34110316217047537135 0.37372437727936735907 -0.12239220014191458386 -0.092068091175770194745 0.18458798370767265373 -0.26482302079789615812 -0.31814453724994146144;-0.56387911178058935935 0.53584876647284995776 -0.22374628989616343611 -0.26030755495859930759 -0.52757292975334191265 0.20370294426526636133 0.18106376693104714315 0.48564037180180269493 -0.33985943571385207607 0.099473644242427203266 0.49554725551310668807 -0.51180611085754679213 0.23617319856449411897 -0.10339284712642062003 -0.22707868192184363365 0.019738418744107869701 0.33826563439377632658 -0.10895508916872082006 0.2185340869307459688 0.10964982941249601378 -0.22989511589571021144 0.27992220795591815641 -0.090279760118156957005 0.065982986542900259885 -0.26218982188906181374 -0.32934134174294321662;0.041074709652750764077 0.47204668305433017395 -0.41804511873243532794 -0.37710150343006759721 0.01111016336332947517 0.37610125394328597359 0.17327479247176236221 -0.23996554392143643053 0.52062335452255992241 -0.44804208501084225036 0.18129372802701002043 -0.25373776246283463731 0.27233313065440062362 0.35056822854638824971 0.016413253033375985179 -0.41954604371945863894 0.28572418256646570089 -0.0083532444300835305417 -0.445797022459062664 0.18817145952861080715 0.20992446408508980138 0.11483335287558602 0.23422559240964374583 0.45357044496779513887 -0.2476791261940211597 0.3934555829864411769;0.27008914297408470606 -0.0085220350469616609757 0.16883286925881443863 0.25880714464301873834 -0.54015650322582742238 -0.52777500594115733801 0.4484289052135257414 0.53800370609417869083 -0.29989664743012683923 0.24174853173108246107 -0.22067917724701555104 0.010029155631386756781 0.15588574121719830923 0.19576367316411502628 0.5052951973127643992 0.32957683588763403426 -0.27019491629893299667 -0.39046825197355861103 -0.13069009484199173299 0.16833539483848344864 0.034758079906574791684 -0.35772598598897370481 -0.50991506169186306963 0.11438079831326131153 -0.41382301600653303986 0.40798087754315359721;-0.034091063364837921601 0.047512386505347101173 0.29199113814705740522 -0.10093889868753508354 0.0034004639229757251985 0.2980205139253448432 -0.077603202668444878909 0.27357768229893436596 -0.2949842880824500857 0.4873741733496252948 0.41769079734235803336 -0.44282584371206301643 -0.13811096640631512211 -0.22961393133224036744 0.47229442564904700053 -0.19442706783995208908 0.22776819086317925955 -0.35873980362143614853 0.26617485105418042801 0.12406239235875757276 -0.35398110256627618453 -0.4796679495733466303 0.47466108651891969483 -0.40758640482804148197 -0.3632872614541621803 -0.43066485954913602541;0.40860083234556493492 -0.1472818986334759328 -0.14069826728779727398 -0.59785125013018014517 0.01913561545371499778 -0.28076191125324290176 -0.41576343426653461499 -0.29697660018223243084 0.14847043204617760281 0.34177743449028907818 -0.5654495101641214827 -0.15478117602036708944 -0.1668669080021327189 -0.44853733471340823113 0.34683347829752153579 -0.079740147378593820293 0.05366202628404452557 0.016628670270607291692 -0.54537812957840836603 -0.23102424610645735936 -0.046995248733173920763 0.32842673890082468846 -0.52305467586550458137 0.14514759946811711666 0.19869111186808488534 -0.44960650812134833609];

% Layer 2
b2 = [1.7423101234006168614;-1.3648416598625103813;-1.358123973784894245;1.2836661550949217681;-1.1763425675446963492;-1.0861689055967631568;-1.03378784551249292;0.94516984084197186444;-0.81531655910315903313;-0.73076588626462324338;-0.6843907855804576279;-0.64344754621901134595;0.55473793595548237523;0.39948041754243351908;0.29587106710138072474;-0.35339333098988967574;0.12761521074588749736;-0.11666193894336215897;0.13230162695979688636;0.14579693707520946511;-0.10369964662430486424;0.12498353107566967379;0.28757279340227359654;0.39973464593854413085;-0.43828094147654711454;-0.48039553165108495048;-0.61511382857636598409;-0.68053469568984381599;0.92144456585714362706;-0.93991979528916713704;-0.93412637989671121197;-1.0313455507878590556;1.0870105177716042899;-1.1468433205447148282;1.2235286377311491712;-1.2948258969848627231;1.4944216377254821992;1.4841693796508768077];
IW2_1 = [-0.021449199788042640213 0.064193327538117350706 0.015721946540168084405 0.018472902292017725351 -0.081477998933037448781 0.22197672118359690341 0.10358131037048540213 -0.17387082258168712334 0.37835199383674078533 -0.044894269825653268513 0.2691482675962583726 -0.29176051092886262639 0.015034221639970644577 0.16898060887563406962 -0.18446147137160498475 -0.15715814812353881558 0.040626333636999731325 -0.1124703107207916386 0.10152939009589367902 0.29897905540315222739 -0.16135473626733720653 -0.21642857506155321889 -0.057448379650980492539 0.27432578025225468066 -0.13636992864298261297 0.21030807215252059206;-0.015006134313186656262 -0.076698734747127392253 0.059115152000730440685 -0.13195182338110789111 -0.13215862368080574796 0.22316850609446212128 -0.19043879989429926547 -0.025277500011450328155 -0.010757601207994422349 0.11787010648443756178 -0.035327799301483747696 0.25017451825141501232 0.15034783426377781868 -0.42747585142761190813 -0.26568243051683781975 0.0069852975435398959383 -0.21037968313821225896 -0.1174354180987815105 -0.22435318533532253027 -0.34598968606637381384 -0.18541711431282567601 0.093547382045749472024 0.031814865727615646018 -0.031031645793597767424 -0.45917264298797805244 -0.30362324561060027861;-0.019673242091487790073 -0.010901592786885795985 0.13675202347476275722 -0.25977491047364564825 -0.039196936488126367382 0.25242311326973554397 0.13601961183750321815 0.27563665039671558787 -0.02334145537539207213 -0.22597613588093481973 -0.18508842959439605891 0.012430923472286220521 0.25385784542349770776 0.074739858836820979859 -0.12266663416667850095 0.11069708171065924251 0.14059327191831691439 0.21002696524676106593 0.1516000507366511707 0.14279081052377845529 0.1252787007901501326 0.089368849305365927194 -0.2082429992869106461 0.22199078422104834285 -0.16848648399093052452 0.38140428070644871728;-0.28473933350122027086 -0.39156554488511829959 -0.064259145530740247043 -0.28008847623222798973 -0.014606274638338851216 -0.037039932896591458433 -0.010138663042667060005 -0.23381326404645619288 -0.22431056163828216876 -0.36750547444487163817 0.072459760948115251034 0.07883004869696204342 -0.3667174808208636394 0.03887913328936511842 0.12265137413278312528 -0.054928704580804177393 -0.18954504632010801823 -0.11962546624908250437 -0.15075524563646111598 -0.099877862609122999848 0.068098758246423182761 -0.13305848928972538459 0.27082930134226529395 0.31269611254131640665 -0.029901105579664782191 0.04064639102840712781;0.17660659832034730776 0.28138037718465241932 0.009901777465619994445 -0.071152935523924099037 0.29948716797864494144 -0.15149075823837052091 0.24282086646901240856 0.24023725189623296172 -0.13014874381890814692 0.24270862347675317694 -0.090810440924785740258 0.28272252402079683931 0.038877736344586591444 -0.14752505506482849196 0.095580222190159963569 0.2470449466876912803 -0.039300384028666653091 -0.19836692242850456624 0.19407889429320646091 -0.12741858375010026161 -0.28528354755624296679 0.07250640655759306441 -0.21648049390510040735 -0.28318714816049661565 -0.22109880230465511763 -0.084481726923662500695;0.11652887520800077337 -0.25235065551411373086 -0.28512839856384597503 -0.22032338631887621316 0.23988373639586926811 -0.0667065185025668278 0.15458153719661793524 0.11930200419215816754 -0.27251072475838572506 0.039936308906997987356 -0.22601230998810317718 -0.19997549999220060046 0.21976851480651868331 -0.25918650972161066948 -0.27867086330915846748 -0.011004274242849746909 -0.0075662183721647768495 0.10365972973971970816 0.022091717416637915439 -0.10587696165855908781 -0.0029908075817312528531 -0.24318633875092432461 -0.21790071787063297615 0.032144726764904339722 -0.15791822706195865478 -0.061373911436096828531;0.24043057331763864615 -0.14036489604546067977 -0.15632022228604161573 -0.24933104763330699027 0.0010748616264109243056 -0.14893665804103520256 -0.2513475616625969189 -0.036533879917989009467 -0.24888125409341893546 0.083599113542970615587 -0.038754682726348521626 -0.24123880993740903778 0.11993037020010349769 -0.069457510592195362276 -0.16960193690596639393 0.17316179770733558518 -0.10772866501375173709 0.16580211333281788533 -0.21271538851883589616 -0.30766083528684989856 -0.14887316603847283725 -0.29799155896651036146 0.2537909676113540014 -0.028863649827389054742 0.1197768588864340511 -0.29736072964794652007;-0.10823916867087249316 0.14675956574836868107 -0.23582135956116356823 -0.13616956822385992143 -0.023930823951936144867 0.14351870122672630292 0.2582002852840012963 -0.22191605510743361851 -0.23567198004388434374 -0.11571636380131111732 0.10573386502416196042 -0.24922444168284571542 -0.019854680541665847143 0.14216904461618298794 -0.053842698798351559808 -0.18908127886301853704 -0.29666725581153063906 -0.13283530802079518418 0.12468275512288967688 0.11829856059862625672 -0.27046618682561684999 -0.23627062151897801345 0.11342155621047758651 0.2907217980242911004 0.042941377002621343439 0.046952948869433075441;0.25360803029329120895 0.04610761188198223004 0.15376781214492357686 0.18613228922247063157 -0.30330174262362186166 -0.27870232100512015716 -0.52891393427601385291 -0.06610241367018888925 -0.14102969241576970849 -0.086274656452023354425 -0.038044590437459821497 0.0082624139288295060657 0.20067799045931586366 -0.18033158359892600964 0.027515435451190912303 0.31225228707040170173 -0.092470546486889862448 0.1606684750110234372 -0.22030068856805606892 0.23416748168163856181 -0.014884587667614433693 -0.29685092597293483152 0.028142834823172799275 0.23798726961494878762 -0.066363168721974993836 0.23951997547274328504;0.24097054775916529334 0.14711383183047008205 0.16575575217573479403 0.10654298402751261055 0.015991670547450414358 -0.059678023271869773403 -0.32601487576007065483 -0.14731179712274319882 0.023180421712872947837 0.019209291235708580992 0.1206309259757395308 0.004574945191106957916 0.0079220504418390513823 0.11865918357439764197 -0.31360631140029432418 -0.029796111314036959755 -0.32269073922719559988 0.20762371048429215104 -0.21649604057248120204 -0.23689213056151031678 0.34381240007013208482 -0.26521688220253009094 -0.12386402298114769505 0.20612762267471296251 -0.12329445615611822618 -0.052102903125875073276;0.27422676634272658003 -0.017572854648162699459 0.19897527939133677344 -0.059935750836272894126 0.30833769210953515527 -0.23966553719315622506 -0.22479653307145530672 -0.18447410067534183997 -0.094728102562392155206 0.035428159643364258435 0.19911270749153622828 0.074573905065061257824 -0.2378381629206953729 -0.14292354857868003193 -0.16142459967743646998 0.35451315308626257794 0.27960587799551644972 -0.030381942929767580958 0.069517499762194567836 0.16652370917790290661 0.11940424127024311385 0.2563186704673701688 -0.30110973302381888184 -0.036459738971955306386 0.044869187653890668654 0.18017289813687700772;0.28482839197827786171 -0.038008188482562786648 -0.10652079316962576039 0.015889311320787739834 0.13092740939450242532 -0.01871048577890129655 -0.042303355886070315162 -0.053525203900598006257 -0.051117285336170964483 -0.086565073185954410917 -0.047184654664021233317 -0.12110461548221827799 -0.044796344895289677557 -0.2465411139404871943 0.15675501016771503648 0.24873694943380567079 -0.297526208649044277 0.20097934006929740747 0.050881389264109136428 -0.058956047249177898073 -0.04998786607536299248 -0.13466943256631377923 -0.22981897549095892108 -0.25677031121305815553 -0.0097648638872369509373 -0.2098887507992678314;-0.21115578426744954776 0.08659358156398533346 0.2170872584675752337 0.28432423983797416867 -0.069660349213110039912 0.091069022610922492622 0.22630250708822904904 0.091153556527674484133 0.29085923489751497328 -0.13193977951796950765 -0.059288562704529264302 0.14498257316378471149 0.141660152638407838 0.278372915049389269 0.27396203450460965279 -0.27435656339400488202 0.26622145117478929199 -0.0088994116723546748404 0.19057292374782536237 -0.21120556952959573804 -0.21031343709998773228 -0.29934972116722996516 -0.023424376014746239177 0.20077852900652118362 -0.25276124576465258675 -0.14917253982217740238;-0.18439316011100406745 -0.18905458359650259559 0.31707077292906837851 -0.11181380774456115001 0.085443123628188330509 0.10032568476925593504 -0.17009224944977885396 -0.10070025326463109827 0.2756341724012350558 0.019640400759755070187 0.23237633995828274602 -0.2153531804528552307 -0.014883532204701560922 -0.079412377926796381966 0.17293783330973103163 -0.25392774505079590552 0.080647906485191198089 -0.29254455274488788685 -0.14724501092882122388 -0.076643918137516101052 0.00080384119003670741633 -0.38035148510338495642 -0.11138506626469367455 -0.099426195765492997314 0.21542245840976367854 0.1931201943401445742;-0.23131719236701428488 0.20363244812006631168 0.25297810620774041634 -0.0010289767441684426023 0.24808256477531509532 0.018212279859303692059 0.25474846122598060472 -0.12564413631163889873 -0.37165811392791248124 -0.14735255013812922908 0.080097758174772701323 0.25063583096449321141 -0.14557825520636455408 -0.18785058344469965363 -0.29464486323525029832 0.14622629583701315936 0.11610217325142029032 0.029014707170501218003 0.29445366553724128256 0.069627109423579483516 0.12000182637050252343 -0.22955634595702426037 -0.17048114391544261226 0.10043581424596334517 -0.13407869347716347419 0.032765880556745716201;0.060551538534229627786 0.17091880373974890905 -0.1096428297332220636 -0.25071860565651188368 -0.027456776129283586019 0.21133788731370084513 0.32206073935935441988 -0.10715464258507954864 0.10236023659171734901 -0.16219002534771159718 0.39669085441053608676 0.043602968306804372467 0.018723661036211147746 0.076282814598291892594 -0.22725570420382390502 0.24711546168022666126 0.17292777075803872355 0.067343841990077646376 -0.17331793059015157543 0.037842538639998757333 -0.27671036404528798203 0.13232825207659143496 -0.073805239883157985892 0.078660030233948560752 0.30660531664876872204 0.029826604850916909467;-0.10477342769863685901 -0.1325299994681986282 0.29944014132283841567 -0.20530108001882652058 -0.040202432064037937898 0.089988654154577657485 -0.079810780267974931745 0.2475901067732295957 0.013445664258528800331 0.17898541998896042027 -0.1716090921816173509 -0.094167821716651375907 -0.18084459831429597343 0.27658996262567864255 -0.0121011366899131112 0.11861102920803674732 0.077055357488288137024 -0.086061414794523338756 0.12804322680332150264 -0.32612837081875051259 0.26785195251103044445 0.23935974743249086027 -0.021721281740426767043 0.026196601744382558979 -0.30379658998773545475 -0.072704028373478085667;0.025656621336787362869 -0.059856781211155361822 0.13118339256330424636 0.036601985264149705657 0.24589432351573153879 -0.24194627246414468491 -0.23495181792164815393 -0.077367691473878175135 -0.29042935261419561277 0.25517396582948131956 -0.23554146664652789167 -0.097664450615726886018 0.15842556705222493596 0.26460657378167340426 -0.11917561621428952867 0.10716344267682711977 0.17831123079508412466 0.1802329502295551833 -0.20320829673621013112 -0.12723654892889302293 0.033302009153644791806 0.27605184065697624396 0.097886247488803770911 -0.28339884649445074016 -0.022759262930503069283 0.056739255333229779432;-0.25258600743284886914 -0.20703496680517682882 0.053136502864684076464 0.13204601172394844766 -0.24252925339854505826 0.19513775394513691031 -0.20969777283436369375 -0.11830604354356860641 0.11747207197673015244 0.32109741339553837802 0.071432000537222442582 0.094481546509358291241 0.22650012152732593163 0.092994629729864691781 0.1540743018914086937 -0.05800753267989505052 -0.054139535986664939771 -0.17403616536091645606 0.14416316821860755693 -0.011816214701226086109 0.16710114127670622208 -0.042277044158536683516 0.083520453217632614762 -0.012838005396545004722 0.23404849464428101324 -0.14065127251986245249;-0.021179622728441024893 0.026626838908304716058 -0.26566209660476186594 0.057724673389308978066 -0.30045246085238730416 0.0026838849297997186515 0.18406046908651541028 -0.1565095583505877741 0.0046169669829714430828 0.060093594191042674912 -0.052167302675547845559 -0.12405610710548460596 -0.20142291123877428816 0.28973686827387085119 0.061762793396987945849 0.22911136343560548068 -0.4466218222212736122 0.33197416854660188879 0.0083299776062273206412 -0.10787303237760921537 0.13197771355216453282 0.24681661561661405457 -0.011141066269511269021 -0.17991755816650695232 0.10280658699974697112 0.10998343076962799336;-0.11054501922204026942 -0.044753915173211859801 -0.023639601989224996725 -0.25185736188895130327 -0.28008757596318928362 0.23657867302153257061 0.29733324505601566035 -0.13646754017405138271 -0.025528756846475330472 -0.18129660019899734857 -0.14406438809395200051 0.091099187112861565452 -0.26381258138172719585 0.25155973020727057099 -0.19674103565769548996 0.18853727528817176839 -0.22696448705888441766 -0.14498812587025050602 0.2838793503516744976 0.138516793882940914 -0.027459491458739857667 -0.17506431496305602247 0.11533622889439525128 -0.16991370268204533667 0.28093719879568934683 0.18659409622268788298;0.15253495813364684186 0.23652433974901834746 -0.0048717320381991757391 -0.19173022347236992613 -0.20409397743474555487 -0.27894949998407098102 -0.095837379460169541678 0.02327849810875014247 0.3555844022367614099 -0.20642968725459040491 0.26527957571063814912 0.044278821531436252101 0.077468184866248041009 0.01347475110454674635 -0.20148095557047224213 0.0075106968541203723844 -0.31738863180664361741 0.12933752947506055309 0.23076328758514569328 -0.14246028101865623738 0.028737973633621259617 -0.23966246996678344794 -0.04505160265054314328 -0.14704816403865261787 -0.072236868028763348559 -0.21366793341557821506;0.29482017840564855859 0.14885196366985320449 0.17225337282072483713 -0.066119858861893365809 0.34292569982213472191 -0.11739932747547816849 -0.085187011575503526761 0.027159138806354718443 -0.22595698300425068328 -0.28361716275503323637 0.22970849088527500736 -0.047514917480037097142 0.28011731660315614123 0.28895418337526984631 0.17010424640148513742 0.10224908727767338668 0.11176206571041977234 0.028795142453264362808 -0.13876593913237761369 -0.12734549234253772498 0.31653560608309566637 -0.22109392313712467049 0.27128072606067127337 0.051254315003469115564 -0.14733331851210595964 0.21039161068826775502;0.11154183968388722836 -0.067661170398438399975 -0.11018067821685367802 -0.16070452841184562631 -0.078478215633244238769 0.28923954111629313068 0.25586001431572680254 -0.17827064794923447311 -0.2603689158742689691 -0.097987498127503888656 0.17597586239339144121 -0.00046760132572030743995 -0.14797076128648140037 0.15329298310334277256 0.1278052030881994261 0.091585192150591160365 0.28138531202013650212 0.031961034925059084166 -0.058725719381780401573 0.18653673717058019688 0.090066759854323094614 -0.23413693144983563355 0.14136409957665302395 0.053716422386725803939 -0.26292760572110673856 0.28302357546565271029;-0.24933652417189500206 0.17641141983035055207 -0.27137369368301728079 0.22853995334831725406 0.054097486944682048049 -0.16865793937382425605 0.078598667839843566751 0.05197482738711618061 0.013049832033328845685 -0.2500754286555197381 -0.30217726132466737887 -0.076858379790354675043 0.019679013574528274322 -0.1041896003513136798 -0.27111009701505567326 -0.14497735836453795599 0.13732123622277955799 0.2037196683719468826 0.27821692055917496278 -0.26199254509779745792 0.055179995425124882258 -0.28744736642491797163 -0.23238621270890896797 -0.088057818180108854422 0.00074650349076392378059 0.058304704654345895776;-0.38234165302256400976 -0.041376650043876569973 0.22967139072868711369 0.034047035005152423426 0.21785963359081939039 0.28024919711155138469 -0.12568153279894886398 -0.32256213350357565428 0.29115000045384753502 -0.0024407821182156862194 -0.27473934850084269499 -0.105420958578592322 -0.082851331210840595265 -0.08784131467154891737 -0.19304646491845359191 0.20644573964547582867 -0.21267949394385579631 0.21773138569732516934 -0.19923017869859782625 -0.20276066907718920396 -0.31004285016737531677 0.43257379629226927475 0.078593754035080121145 0.049184557472520012977 -0.24436309123896648998 0.13029833896176229446;-0.03539349613839359171 -0.07497706780920000702 0.20869266247991516416 -0.14925365382071054121 0.13910208952244748626 0.30390164111181866557 -0.15998986211644392053 0.15576364118206739717 0.21558115744404038328 -0.21478041894386282196 -0.18904764256962280911 -0.2804947778278888415 -0.29703780065323426296 -0.098465972636613982583 0.09701734066879581786 -0.1018647568664357711 -0.045861389277808806142 0.22950416608925763851 -0.11850456580369579662 -0.18668098605199337503 -0.0017748743821771517572 0.017449682731895892196 0.27663742426550486098 -0.24882409182215989296 -0.27165559288960106077 0.077750387714466323574;-0.04497028161377062544 -0.14728149203897067387 -0.14509568925743210333 -0.18326825408989166899 -0.25794346202986812022 0.075409688522087625628 0.037758740499916218503 0.1525928677926094712 -0.11828454048213075944 -0.14003423142564030979 -0.15418299268083177078 0.1054043365363657031 0.17343907069338257432 -0.062406790293173461381 0.13185363735295624332 -0.17703831316907711613 0.10935841518945274564 -0.025187799366725958927 0.065370826951630156554 0.14643645475386518617 0.19694454015175322237 0.28597545417869574269 0.23707289274672518897 -0.021930694524077642971 0.22684214533621896437 -0.053735150705470580146;0.1001087847128931535 0.15020169603479088805 -0.11436889555598615809 -0.18891276084134647761 -0.17349605668233733513 0.2909551281127105149 -0.15564166464208964435 0.17880853164553861534 0.049994248433701274359 0.26857812252388657548 -0.21171010337114087863 0.15096877831548849436 0.045852438894361073618 0.11974255697387185815 0.23830160689434670696 -0.053906955034998801923 0.11572388858407865742 -0.26558982029623395826 0.12273586829946038501 -0.10064634197692882978 0.21548794151501027283 -0.027203232815669005362 0.08621031228735973051 0.06149202103972651462 -0.1151582048896822863 0.027625819244392463975;-0.27511773364993730162 0.29827810352722800014 -0.028099316388002559819 0.23975016103668067569 0.15441472404705045007 -0.094994226303130605005 0.025661801751081285417 0.0033519673359125251935 -0.15051022193349766765 0.11967182381613594711 0.18552171186076341081 0.0088421360889983993681 0.18552266303176059847 -0.014053561345326566825 0.1127476037166079692 0.026487746993721143079 -0.17570312062093948469 -0.10113413598615056399 0.1596004378501061638 -0.11302486349082763173 0.1404446995539449794 0.019688789384297550322 -0.35160505984364442966 0.048142378316079294243 -0.047648180538852988319 0.18248782091085344326;-0.079205816645218543592 0.17054169276963149215 0.21939604893169839528 0.0037516449369661610674 -0.25466302731456397224 0.13689498333121513651 0.073729734791972117991 0.16150388903643039806 -0.2799604667382948886 0.2721626299055415199 0.20053897017681399095 -0.21644826094658786708 -0.14524308962991452909 -0.035113781269351822256 0.27286961895491707031 -0.25462063865786582761 0.083397273315506725844 -0.20885944082840807168 0.042219221616393347307 -0.27289529144017793394 -0.24156295335254152068 -0.15749931788800197729 0.0056141401948681555686 0.0097506429730917307946 -0.00076363501954169175391 0.29264306536646395029;-0.049584000486716503509 0.11269713745704340591 -0.23649854953669791069 -0.029891598497840371484 -0.22238432019467910261 -0.076605373594303208251 -0.0055247126724029945941 0.22737426541027119797 -0.046538073740809211831 0.1788900234868857908 0.022226110428183520201 0.019417586188684686499 0.30092981062824453176 -0.24396317119075405788 -0.056671875619416327285 -0.22694868316924687868 -0.030333484195085042706 -0.23644969740432558725 0.21689431837017253413 0.0013307498192068540396 0.27240374434596731357 -0.25648467280109227273 -0.053321836448811561759 0.25658551051300759749 -0.25428489389729730386 0.12218858001799966229;0.11790778988841096875 -0.18048655671003538403 -0.2606422458271496212 0.26857909177853644955 0.30892844285236231716 0.084624728548370858894 -0.11835334009011454215 -0.28983051810573340346 0.045431000826226405898 -0.14180628833512173848 0.2001627574341719451 -0.16274729702469256654 0.033473047444562246955 -0.27011051983488842954 -0.091185066612966644839 -0.099488497221571603468 0.025956728221180221799 -0.23014219754979464705 -0.071752546857577884087 0.059262405097909330587 0.27571140293433382684 -0.23918389498535683191 0.24818161498577170909 -0.20146072123210617688 0.047697500428258564342 0.22542509315185110808;-0.099726163933466768774 0.18967824923203180365 0.30465797941014682859 0.26438138759685242407 -0.30705685930286263918 0.065676500874083026948 -0.28156621645324247938 -0.16371524876204546217 -0.14241898593803919981 0.15125212559574011117 -0.18483114272675030265 -0.13041984225360503391 0.13833437739560439095 0.14388116109963525191 0.23457853016257829148 0.19775507484411794512 -0.26346822051199475512 0.0034293381852747522286 -0.025916994978243981101 -0.23248401687586267572 0.30104665923032047914 0.17664349649865976333 -0.2459694020203989917 -0.23549609544029498354 -0.12213897561180171725 0.31112867442929470485;0.048806425547390737407 0.24707802545187246279 0.34101555708228381558 -0.029236013792209289419 -0.18311631870313110904 -0.12305463421645726485 0.24578996602076533251 -0.051452971173979879238 0.089293160106099708773 0.07230847702818642142 0.19285836955662580272 0.30183437619924591289 0.10128757756212296293 0.039900919080398722372 -0.043145097027901965769 0.13653847339066907396 0.27341310080102648739 -0.098493733844544628653 0.22823830373001885441 -0.33707542643624494039 -0.34609760741473188927 0.075289719947050220972 -0.16756062400196297668 -0.14884243020658555201 -0.029940758086795363907 -0.13143319250620585925;-0.23557900760799621587 0.034057942442861144361 0.27797701770887772721 0.15973524868429450629 -0.29691875686516233657 -0.16888699696433376318 0.20726873294101630374 -0.0073534240025529534063 -0.21458101238611337891 -0.32029721517183207258 0.10907421321852392437 -0.25804342362080939788 -0.2819419531748572072 -0.2740715412139815288 -0.039524191397548570637 0.053783901473024468831 0.15563218244884494124 -0.14542202488713748543 -0.021429710308895958543 -0.21549050064644995062 0.24628507987252010181 -0.12801497111946222307 0.13111260524731441213 0.14318107748493952291 -0.16754321790813209159 -0.034715440441442702024;0.13518047510962724611 0.29265050136555614824 0.038355364394297417063 0.13274310461179913978 0.32133602960949730898 0.078090870136428180981 -0.054617937950402074831 0.060829584564328562091 0.4033124114655468051 -0.092988788044878853412 0.26939938655712003523 -0.067153446760185420139 -0.019843806590054038907 -0.22201982959611912816 0.20911025919750056423 0.13963499778184934597 -0.33023827980903558421 -0.16868983621080990698 -0.19107335097011834968 -0.19811258465611947255 0.24669018012063825829 0.13436493189073053789 -0.025379326053496641807 -0.22944735705505708845 -0.0086463677301901742389 0.22971024099433901;0.03720603962876661841 -0.05500692714075734735 0.13118277487450746843 0.043146930085592040405 -0.23774295651868188051 -0.17360556900396675872 0.12676252287257680496 -0.19980160315345735222 -0.29553525528226809449 0.034474551281539991821 -0.0022546142305865822172 -0.31164049373943697452 0.14475960554627337329 -0.22096536887627299395 -0.29417000794175940381 -0.33594474971315124723 0.17266881274995454776 -0.17348876933595738792 0.019572831482180811508 -0.11396018231112689523 0.14754198435373150344 0.14469607953762189667 0.056361455442684817163 -0.11347728992573552498 -0.20626072066910025593 -0.083505644923444852235];
LW2_1 = [0.49355015460010231987 -0.17195380038397800604 -0.014252756506290577276 -0.03906305384902788308 -0.050391198399748718395 0.092474484428008943415 0.40097666532654197002 0.28326324068109448584 0.0048265389227928777102 0.17696371878073244299 -0.19338986794576523698 -0.30505521655507500389 0.10538640496216047926 -0.089945957082373476088 0.10465038322802719395 -0.058030980145495632272 -0.19502539781173397482 0.023828166530227980896 0.33286824404807952016 0.16510053308608996225 0.014675214178085389111 0.039323624131330128795 -0.088600287187230647445 0.073814121550828115659 -0.056684865516897942062 -0.28540439251842175672 -0.031728161430582810243 0.10806491249161644108 0.4964794256020341745 -0.23474983672079863251 -0.0075127098345269156809 0.034607316279454694574 -0.12208925918454953397 0.3689538241910249039 0.089403310983158026937 0.071080134616563345196 0.3688426877107933155 -0.010009451804697082344 -0.18674271712707476989 0.41912642205938904771;-0.28368151692993015534 0.27250592535583617604 0.17660851816070499698 -0.26490602691492742826 -0.24218398877647456802 -0.28571096223143555015 0.21313026979385307769 0.13228702892349505915 0.07361275041819363707 -0.28933375420443419035 -0.076839736576588199557 -0.28165950458487626351 -0.37479839129840802903 -0.29679785698491140122 0.09274452912398559179 0.27579527644105017448 -0.14168318741153862472 -0.085957047089609620039 -0.43806226332382591782 0.24815890497464623832 0.25061841699584147536 -0.19664229036296376751 -0.3637403336952182431 0.30798070730759513625 0.047204129342092497612 -0.12411449430299892338 -0.15672977454694977939 -0.31326695536351861771 0.080498733597336946666 -0.13799652636045181553 0.00081764855420693146118 -0.28343086561728308981 -0.15002168300927715139 -0.45730105218083560992 0.20035100237495281905 -0.10685708400903248805 0.2068400218447830341 0.2822428464983002816 0.41265079762995959811 -0.046235972209273792921;-0.028700285324065048093 0.054067331863666356906 0.071232383750340411144 0.054924118176420969051 0.097422399520194727374 -0.28268791283498378997 -0.22346832123438023499 0.323380513480663212 0.31243716552683714616 0.02555238202692317051 0.2752951214252357115 0.10171516353261063348 0.16228462355930173278 -0.13686774490000941373 0.07808307162468365592 -0.12464483840403427217 -0.13131372766005705577 -0.10545213370794984109 -0.23224166663364925745 -0.088475001986201159965 0.0076088703562511477221 -0.23300063346475125003 0.16842302192033450914 0.11253764893290885141 -0.23403495601530632797 0.086334090113922956622 -0.30995636885377597647 -0.2083901936958983403 0.30455284732279458426 -0.16553456104355307454 -0.17623159985509437298 -0.15538753658953166625 -0.11889002116943923892 -0.27253341271543696234 0.15518096835118283527 0.14338182637212626425 -0.040600156067445790364 0.073744521316220057461 -0.10606023121218902117 0.30615000286330629198;0.035311521772408149822 -0.022689031484432437002 -0.20730381628473959488 0.17392656505094306052 0.033669914540352577359 0.26805147224248609961 -0.010348343286278613093 0.33113492201913891089 0.16721112937778798146 0.27321259100843270362 -0.20239344302424158717 -0.0044584158022626585102 -0.15913369986797371025 0.2832874785060053302 -0.065539186000876603622 0.27249655860052179879 -0.17467911882915782007 0.033582111737770710402 0.040199238488961841487 -0.31709591926593760913 -0.25876933817058517251 0.18571357067132412966 -0.051900365058371825122 0.31966286962354029111 0.11755114141887960943 -0.27349769064316781231 -0.1013822173624821521 -0.075569585838949585033 0.082590813050953823526 0.20559999176112614405 -0.0021621961243780043332 0.34146172609944053233 0.16071158856467859799 0.35311917717186019905 -0.067843590575122653119 0.041523772713340185991 -0.21637356027375823087 -0.0088533051610303684087 -0.22203588800097984191 0.26754916193182909367;-0.090808918441032060453 -0.076826893599047124672 -0.15728283989158647893 0.01363682033947003977 -0.053587624381483844882 0.18190591073536688249 0.15733032025415571997 0.18738905541026795731 -0.074865253535655665318 0.1522723100024882259 0.058920816558216577985 -0.021291592372360189367 -0.17505714683114562136 0.14556762006677856358 -0.10499724661978206142 -0.24432605299438078794 0.169718773089842484 -0.22136247249343823928 0.2269544406886733201 -0.23591712748668111632 0.13327576703239671363 0.20875205774406893622 0.023103941405259283831 -0.018387892031306703189 -0.17089397188794439031 0.27679214897219933667 -0.17911525272602976666 -0.21225189731572474683 0.24977616721437570502 0.018450365135782968024 -0.0141354400736377981 -0.27355874516675254826 -0.094598786116936062207 -0.29982165480776329369 0.065780580749837197496 -0.25415525594410270926 -0.2415011276351874403 0.26465876583895847629 -0.11208946023112124901 0.019726031161020941146;-0.26065577355827374006 0.18674798409607795691 0.22373783766617985624 -0.094750584496859593941 0.20024032000330474479 0.046059811906366023015 -0.043105786811422623639 0.2269562791835358917 -0.14353113236433973077 -0.22730382619501973696 -0.22358390682387094262 0.25080587480050908766 -0.19461159887348219999 0.20465721729365252135 -0.30214260129091174978 -0.10535424897003339839 0.18884393978805313896 0.21575562963128938621 0.18617553196780992075 0.069944297060913943054 0.19957646463826983485 -0.02483349365382648069 -0.19290747828362680982 -0.0095869713253869549147 0.26242383265752511345 0.010485194783388480586 0.039209646334650918864 0.18550611885787138267 -0.20470724613427260241 -0.014374033022558933489 -0.0031531637421373655099 -0.075021509560530663663 -0.12136936502601095023 -0.32066464226901120194 0.0049319382022940385854 -0.26757133808322836055 0.23924962394969323531 0.0023032492490319437725 0.23899599278067087949 -0.26446819022247469722;0.13282921162238289781 0.21673724280614345417 -0.27568552983937666401 -0.13892924605971954111 -0.22941987882269021526 -0.24486443977076818856 -0.24629757375339411674 -0.050075401060244620344 -0.27894409886940457755 -0.26632190807723910009 0.18634075423417464923 0.087054615608460145237 0.18481943478180726248 -0.17527571179639900301 -0.07485058403450059461 0.067234758663397745093 0.17130865335935852034 -0.098562523442051672151 -0.20085001416764977633 0.16941924159499929803 0.26624670393287086512 0.02959266862527343625 0.30669864198929158716 -0.15820246032900395217 -0.20329934442311478615 -0.14482357506789983459 -0.24673507153109158763 -0.050574434813087536245 -0.074684147912588552676 -0.15766991981452282978 0.23470190020751080517 0.12579977383969578875 0.20893490281150967069 -0.076937273310912629443 -0.064505427477808185976 -0.092149474524922739271 0.23105160618338366207 -0.2159659795735706378 0.04223252790995833672 -0.1604637027432812002;0.083676233557534882013 -0.085885700376016949065 0.24885208908334549571 0.020834679270285205721 0.22704425920271442685 0.085528862083908793745 0.21284382356771733291 0.083552511319919905985 0.014623404793906592813 0.16447375266692337847 0.087772832419051580177 -0.058011072859067119856 -0.047443045061140054486 0.16881607253495917176 -0.30696280184483709652 0.15818433035487453053 0.22063950390919220834 -0.38696034199942652698 -0.11982463119770737914 -0.32560523853790540594 -0.22094031008458164811 -0.11692084255669887849 0.15418676621616833611 -0.076793329308405045008 0.076042939341223705907 0.30385511435260026403 -0.096787776018341126205 0.022542671235100047306 0.27578375089594697744 -0.2996425775709000705 -0.20477466122212745203 0.2308462168079944421 -0.11207272857162173252 0.17855962462228502918 -0.12652751374707160714 -0.10260907158983748055 -0.13157358432390411918 -0.23912854737614977485 -0.34051816086447306287 -0.05369040126588008055;0.12259174290480993885 -0.11854582333612438683 -0.051663217561769093911 0.039815328243361564065 0.16870781412527399712 -0.21469035348901058247 -0.37257631435945431919 -0.045989625538261184878 -0.099268112317531020938 -0.38366840775427002441 0.04522181608490796062 -0.16074836057270935896 0.2267114290697050949 -0.27026811261510164108 -0.10568341158890003084 0.23370775928523121467 -0.10932415597100002269 -0.27143451175368271677 0.3895320735656931932 -0.12394881100061505563 -0.08243850250042730754 -0.17729946781150110469 -0.22908374852649901476 0.028748238601379587365 0.330533836951835025 -0.14209891259204190939 -0.14663733182415911172 -0.062706971572127317982 -0.20658384823654779572 -0.2615509460058303981 -0.037788735378915618013 0.22927274673385636405 0.11434743997629383261 0.23047635550996350973 -0.2785052877205503874 0.14048968183085050465 0.18609349414554401947 -0.28166094464610830217 0.0011546214267539394675 0.33726460050310091976;-0.21517343629532309501 -0.27654500327039577279 0.30783024399329905751 -0.17156297404880543889 0.0083172533224689631365 -0.16036382904773791025 -0.11103431386982171025 -0.18311116582617559256 0.22122023564943282814 -0.0027960675212876412617 0.23227345350221650921 -0.017354531171162541903 -0.036168628154938965713 -0.10936530219926732244 -0.17253802588366543014 -0.026854761750932872738 -0.20619548969622891743 0.14337941363555353758 0.12104690393689165884 -0.20506727996442850048 0.34527609076227366858 -0.22515386405613094234 -0.066723414301935471404 -0.26379231762297167263 0.27539861917059205165 0.35727499797298090112 -0.25896471013198107958 -0.063546124361150146953 -0.25242918765242244872 0.080400645335705261951 0.2628394654348832904 0.051748794620211056861 0.1921279984959740339 0.19683872709271024726 -0.06425212645706578074 0.051846862048236783127 0.2243130808282460531 -0.21463724259089958513 -0.11671665287205312822 0.017646952557045306187;0.20173439720280528231 -0.16862178529952848161 0.20825684670997970938 0.25792843679363747222 0.11127600691767411401 -0.068028266976806084365 0.021838472994703740648 0.30538248100710796429 -0.11593611680423042409 0.062172130991513495368 -0.063800262335781995904 -0.061504088707354749588 0.12397761370988308327 0.23849894269410967795 -0.083543924747567194222 0.013092799447269366092 -0.30089639234832599168 -0.14715382508787552829 0.43118681511364420622 0.34517608063598598234 0.20814791165049040256 -0.16790119179244489267 0.30030837550297095895 -0.38675468025222148327 0.2013855544717023105 0.099917053824930865402 -0.30205967806483041693 0.28250925602332149777 -0.18742154185435758174 -0.067131204606924149703 0.018469482718881598954 0.1381811035033627677 0.20724269512539489346 0.14919115143806424562 -0.053883362293621547834 0.013436247982991218058 -0.20515648178009718294 0.021700455706248900078 0.10861651373105511709 0.29098571226907421483;-0.19191165361319692528 -0.2080831689892864711 0.026715379772631830946 -0.033197639473352059947 0.090078759864531607326 0.23031879908431182602 -0.064368074304880812386 -0.11924210471588721216 0.063776706518777731558 0.068313353325805181715 -0.15322437430770513567 -0.24530262999539403923 -0.021740264204422429101 0.25674381024978770727 0.10479139586885730107 0.054954555415286751585 0.060369379407058672282 -0.1964862750994554319 0.086018837165255768173 -0.17576199737284137203 -0.21216359511598453791 0.16931033759153699125 0.17078214604353886275 0.22577413377814214979 -0.21553359595520574232 0.28293968906311545153 0.21523957628478487814 -0.31704908178717161604 -0.29925053124122080739 -0.18883359812696126623 -0.1875420340079280157 0.14227788206741068255 0.3149059425086094266 0.24375570405882787672 0.21278985164950797726 0.33079400245315365714 0.041249318381570435066 -0.3171839086783948547 -0.13145550661095734002 -0.31860134608390661137;0.19792896945829394073 0.14880271522094207226 0.23951588000188683836 0.079036465460829000151 -0.18833875813682438016 -0.012198732967582113715 0.23032284090628762918 -0.035576052665367792482 -0.17761970573203536561 0.16565803361971134788 -0.017679459059962279732 0.047564339748182478396 0.24386341464819755176 0.015931300813364027841 -0.17380912472501824917 0.19688384209686954351 0.028603811305064168191 -0.021615045251158045148 -0.24844862315825208543 0.18042877105689525408 -0.15162483428617123948 0.14075885279105429526 -0.16947076984998596383 0.16515036129192228742 -0.1252457969985192876 0.068517729055941514749 -0.18876255738280028895 0.12998754659920511156 -0.17449366869366342292 -0.19929303873318995888 -0.22531231192391357188 -0.23326953779130296662 0.11194200895552555708 -0.25079393111247288983 -0.11543300248169909017 -0.26519069600329037151 -0.20012556149219218327 -0.018221101872657151366 -0.17367394978761344082 0.18493790106848023713;-0.076366640906533264643 0.34940030077550210397 -0.10136541836855908483 0.2724275204942939177 -0.11173203986258138654 -0.053152267045918175081 0.14986152848187625497 -0.25977349773187063953 -0.18650767309367227709 -0.21488944907851237343 0.18588412999184308894 -0.26319695453423463949 -0.19927090307305961314 0.26092297278125797799 0.027224412932417174638 -0.2032891588469402655 0.029511799432686003364 0.15442981614855649797 -0.12782947821386406173 -0.071448886718993839806 -0.13799707876496664083 -0.2270302317534360903 -0.32950580623113151502 -0.231820446032966615 0.0074759527229276232646 0.17080299336443893754 -0.1724807841198169045 0.34165722052878233495 0.22949946108095015118 -0.28718888730140168519 -0.30253204048952930805 0.14292013243818627033 -0.19973059710141979894 -0.02764430729333336792 -0.075783923414454501533 0.20496768252443325897 -0.015152033615106032596 0.20455245984940245707 -0.021175594904947452751 0.081028928460724167215;-0.34278216341170736348 0.1996957550546417659 -0.35125299592332326348 0.085476323049712629731 -0.2524299121591588313 0.33196522204209871765 0.28369169417636153074 -0.27010328268950228869 0.069716496601050351178 -0.26693336086394081619 -0.18494511995679371874 -0.14672611601383442337 0.1958912843762232181 0.10562581675063287268 -0.10722843360491776665 0.044250518846603477396 -0.20245700426974291841 0.21362235785293209878 0.38453109173059563108 -0.15292374891395474346 -0.21614781307818922707 0.0027535565193560901376 0.32350911921468467058 -0.07849012336718413918 -0.15055026562475407048 0.32789770487300723412 -0.32786697909035550369 0.23926119852098665097 0.20073992278282776214 -0.24439138590350922842 -0.12450573836258381488 0.021580155682036323422 0.10584706531209207847 0.18887220363682383217 -0.22318272509757824951 0.193681722325944633 -0.14143033733731782964 0.22226661905857605928 0.079585106338393621361 -0.07685732825910315813;0.094723729468933259845 0.40521498104419617636 -0.035977647963239926809 0.28364847323150355063 0.21629895819963532166 0.060460331499182590198 0.24144385739406340474 -0.26573868037814812881 0.11671704715554419296 -0.25997651526673354327 -0.1242537472294526768 -0.017103681332801410481 -0.24943934142683318878 0.016710080829693933768 -0.3761518614304736885 -0.19498530880630662865 0.091010988739011394744 -0.26318869217671836402 0.17032588918386348809 -0.14650835100169856684 -0.046202300541582815019 0.14604730677051996901 0.18151950618100184953 0.2934919443566936792 -0.048810298441731403418 0.0040315834985479390845 0.054193825820266827709 0.04408113630616276174 0.12889674922880359209 0.077508346997351512675 0.19344363481596385523 -0.32209951555506105558 -0.17356823914793545471 0.11948973821993202904 0.00084762269776986155431 0.065115620101823368238 -0.21104507214599846354 -0.32641191583773060403 0.18396860187488114913 -0.33500225457442744936;0.19942245252756404805 -0.20261305021405698334 -0.19939327359290892616 -0.15862808131980790649 0.17023975663293355876 0.083698396547239997667 -0.37662584377024560522 -0.33448327773909253269 -0.0099682339890561615786 -0.22519014508058352031 -0.056517842415125717215 0.14082920974159304772 -0.009393602849159583823 0.16884449670595463866 -0.13500069958507610046 -0.081638714454415062249 -0.20815576856522285953 -0.27552968737244970532 0.21045989247198790273 0.034670342745581159138 0.21195508539836099837 0.17264273659525686266 -0.13818921318914215157 -0.11744615265439346807 -0.23649033964227947346 0.2998565563205122797 -0.18654504816156061708 -0.26323938431744681177 0.037258904894500982641 0.19060962942154502375 0.27327061197023916339 -0.33045598644346063644 -0.062263620801060744203 0.020657152634902285065 0.23802857189503617841 0.027571249499822546997 -0.34695071854264664113 0.0058838541424946939895 -0.17865497241776240323 -0.0047977146106574037818;-0.14055721361069892228 -0.25708057702399594868 0.11103926531447735893 -0.12819043161821244703 -0.18925474561989275024 -0.098117892075176543765 0.037476302707938988212 0.28040354421746682689 0.1477115942283483141 0.12000628579309935429 0.054692421122862482086 0.27688994125849281103 0.036665730449468990348 -0.27964684935629591234 -0.28470173345777066709 -0.19344866852663530898 0.21961285948966971504 0.31151574864933356812 -0.17500440043139708912 -0.097778917137860243969 0.094112848510599825258 -0.10731790431857989032 0.29170801229635756613 -0.098770303518385976771 -0.069402379993146134929 -0.18302827698804174927 0.11639688453036811655 -0.17551676174842742451 -0.18330789130942579113 -0.10552569406428505272 -0.22519126129365216182 0.14919987068592791002 -0.27720839634582750133 0.067871424655130893622 -0.1803907872244061017 0.078289033765742865878 -0.18705773369616399138 0.13096217050292030537 -0.05070553032329142007 -0.2225032822471445515;0.041376224763332997147 -0.22694601079928256038 0.39752379772285439952 -0.32178291759965926833 -0.069468623574990104319 -0.23396550846791117073 -0.1994363419466353704 0.1140211261876246801 -0.067138626792857702963 0.17554402007039032751 -0.43712452004352697621 0.22638865836032517898 -0.15732960761643333125 0.11264986723442473038 0.18311782813352514565 -0.25428030443227278568 -0.056489624174244953969 0.20062673889575249886 0.025787856393524228454 -0.099491100739051305246 -0.079614540921610882362 -0.24689869779007184158 0.1406788712372576966 0.15369025630194346754 0.36547951633775999092 -0.047935663716939205803 -0.086127412602446926093 -0.20571625991251954457 -0.1217077646908827776 -0.10765453158984455984 -0.13566637651727195268 0.0010254398158823015575 -0.12603752904462126039 0.33665377337698326743 0.29310934194439175471 -0.27259974214492654898 0.39639608908580714619 0.16246775984367406442 -0.23971893011611386526 0.15266253159000958695;0.55951584548864241597 -0.13172568403171086571 0.14319068622449654393 -0.22752426532423364325 -0.25089827511368972823 0.37108179933963253427 0.1819388574804909342 -0.11278806213207114018 -0.0354836049384047586 0.25253121888474538981 -0.51319529617730896831 -0.073905790891597253345 0.081620420218706454807 0.24293215271871076988 0.11478048291270323555 -0.11522348024703318869 -0.33979306109491758114 0.025085624982215722761 -0.28674267660948199454 -0.034780192411529194108 0.028166515858116612098 -0.12734638856559715725 0.057866557829126689938 0.1189022619036494699 0.27566553653411041136 0.14221833016857299281 0.27451208335799393012 -0.13771558112727499967 0.27264613879307703082 -0.10265415459043748803 -0.26751233830142912007 0.27129497738697733178 0.12239891369040287183 0.22532003535834746466 0.015177105385195501994 -0.22073881979428719435 0.23481372092790439576 0.0017854787028116591956 -0.42630205264468895576 0.33926828950961457343;0.060435298682067831177 0.23755624063645949806 0.22425439120050899566 0.179089538608475346 -0.1695917292334420956 -0.16917188074601396952 0.21147674579129752126 -0.27673493608862170801 -0.12148851653678853502 -0.060034747517301062514 0.10336109798395942683 0.24979128049649163001 -0.23682276862440240772 -0.0046113807456552840386 -0.15460803195166628043 0.082588509702871029661 -0.25582193118791490827 0.24385847780253130934 -0.12335294474938732212 0.18081352745783121905 -0.23134367027168914466 0.26343028255927569692 -0.23265667002352127812 0.068598273117959115974 0.15040271071127830904 -0.086793832613589985692 0.20239364040133225875 0.03338459767355496377 0.10576481190801538534 0.2518030471489622335 -0.24870339088879567235 0.12062110804116220331 -0.078367904338062219227 -0.1800010847081916221 0.10588954388358380598 -0.15703575471175207356 -0.071035653387895469901 0.19910028777087734886 -0.1718060745433808989 0.24890108393922116825;0.12119553276997528657 -0.075950750064508298909 0.005095357687615374373 -0.15191041994578402541 0.20772550975612211199 0.070811967795495284195 -0.19564510084474903695 0.051788745098964278357 0.25973086265470640699 -0.33168735648523112181 0.15591824772854742664 0.17051851576106749619 -0.20517813045579907927 0.20131276172136897129 0.14186868913318337326 0.21218600954161520589 0.09473547693194497854 -0.072875419928889836885 0.034602395493609751365 -0.067878326273123221202 -0.007017877719492202418 0.1915059846779307573 -0.047883939767542425814 0.30508463907732497056 -0.14314193920193360454 -0.12168078502180523781 0.29751164671539354067 0.13660315061409558646 -0.097432850218890240668 0.27941436065596636507 -0.14418727443934839516 -0.28504885171642996289 0.29085129731249531604 0.12781605886835231689 0.20285656578595839816 0.12123331833172971972 0.24527379123197790012 -0.30031631381219547894 -0.20328993934213235306 -0.23291601660634056459;0.086424217549165266439 -0.010501153214598654001 0.093177565633315029281 0.22187240405911937136 -0.35250868650112909819 0.19759128965950475965 -0.12003554009225389509 -0.10719558015793093086 -0.14122813292745017844 -0.050733949896380310662 0.15015899781204550267 -0.055893580834226658238 0.21084990693231642211 -0.27282361062841531396 -0.33615528067698391412 0.16371373940653327628 0.068062164019814075377 0.084731101270681091764 0.28354306322888417347 -0.02949318383751374506 -0.10497849055522080752 -0.061625273278756650952 0.15309667020427444872 0.045179797156765975907 0.054761483234960481314 -0.22585096059320833306 0.073624318570228441949 -0.1592597048886738309 -0.054197633022703133043 -0.13377219502094525594 0.22714988397454974334 0.019107013830489780193 0.30539173742416336754 0.096227466301517197711 0.2177095540484351166 0.13705559836471126189 -0.24879484209745805767 0.072780346721429939327 0.11102673511577532128 0.28720825162949881193;0.17118146631084515952 0.20058597138678618821 0.19803992112627044619 -0.3282983235853942916 -0.22492023810258185423 -0.13484175788615540559 0.21392785918136206225 -0.072934184820702435692 0.17849610128575521539 0.22631644375206430575 0.2340987782788554461 -0.10031884718530427458 -0.038405473494522480993 -0.22713387016391994866 -0.18981228512213174642 -0.24485917475701290957 -0.29406825088797061696 -0.20389072299956617629 -0.076967732163758267872 -0.088768989290507888112 -0.15342299779607626586 -0.11787522716773050913 0.25833185634936128849 -0.22876504076825127099 0.17526920149046429365 0.14709579355202095918 -0.15872175585810330278 0.1743570726014353478 0.2821593965498185308 -0.0011313421276853245778 0.0076030892956858078108 0.27942710555642569226 0.17783398750099962959 0.18388473248367126489 -0.12059123499317452033 0.14033590384912744686 -0.10267688735465532734 -0.0073360032797153331557 0.18056768273150672344 -0.047634938551978062149;-0.079732001089880821798 0.18708487350659197546 0.095031811824321799076 -0.23953493911763579227 0.026955312114209897117 -0.23874018529299576019 0.046624201462870877577 -0.087317499439715715037 -0.013545327228634456221 -0.079596700385190941041 -0.25855751238070318054 0.30719693494852701177 0.26149344038175365013 0.10454779934035959843 0.1764358691072517582 -0.18783910279968718537 -0.046524782498066435954 0.29652858194044623419 -0.16667525765381474567 0.13520898465672970268 -0.1944820025507053296 -0.13459568133172164495 -0.010216402229927812328 0.20694215243291244621 0.060240937556527235364 0.22475450488912407376 0.29396887638498697681 0.04012667463904310422 0.085491939523476542795 -0.25291406139246558338 -0.30239587797803696434 0.066840855353368963665 0.20242674523764231376 0.29372686653930146772 0.21131396203493305053 -0.076765222724300197221 0.017547841428041156125 0.23404735800028964032 0.014976446529685601833 -0.093991424810917323374;0.19694167449953767224 -0.13060538030606028137 -0.070840196766498636505 0.035902574115593624549 0.026963500698456856208 0.34929264886724603612 0.035591076102834046102 -0.044398309565674955179 -0.33731122054067103067 0.21101308791094361417 -0.2455743394005775182 -0.0080555622538630161644 0.1537548950111924384 -0.018706915954807459834 -0.030379718313223776777 0.034866523526261905541 -0.37011954592558216071 -0.32609040437678676883 0.32711314372645478032 0.10405467259387957135 -0.30691523024411221376 -0.11572652452496177966 0.28851000343712557283 0.049753534117612796539 -0.076149739316188111427 -0.32538039024475073901 -0.26351974306578518359 0.0022906967410145262672 -0.14893169731053132465 0.14504376179806777181 0.15932744869260187515 -0.25233517978933162063 -0.094867381222341007341 -0.10783666258614522937 -0.01215308643043222156 0.16122879473905937786 0.20334237102609833969 0.23239655913628798345 0.14007574900716493471 0.13710021893581078589;0.061560527105302173534 0.11646926838421790829 -0.010044832905368979506 -0.084796272809746678356 0.28188171258340694036 -0.20032192224385755863 -0.033185546730548277916 -0.2921654288407015132 -0.17419950385098736945 0.0045476228015820961345 0.19623318693139243929 -0.16190714776775602668 0.064565357004568987853 0.020780658701540406091 -0.28043140212071243633 0.23952791745595666817 0.25201111942304721403 0.23627460853458301382 0.20227701046215171288 -0.26095921934407062537 -0.0049652993301426045017 0.29517379347154037994 0.26717511966967477655 0.10959545493452596543 -0.28158283697107777677 0.19783939337507028267 0.23550687063967642998 0.14986565514384345144 -0.25928375781938767242 0.14476267866829156672 -0.21659269186079568859 -0.057372911418870353728 -0.072211698826691109177 -0.11399068022457413407 -0.052249018773487136691 -0.15461848983405268587 -0.12463544187260809648 0.085219455263878557405 -0.13749014595296712993 -0.029258340030064552278;0.23821809163157101064 -0.26526798480514246492 0.12155777476562767969 0.17319477226651033841 -0.23831797934154833052 0.025883230016458425027 -0.105013910026029611 0.11582739910669953565 0.1422216995705860576 -0.19959045057102189902 -0.18911178693907229609 -0.25748597158993452583 0.12927737041046874489 0.25308537269404729475 0.1849288898555332683 -0.17249603976547317474 -0.26209878065375413758 -0.26865040231762710166 -0.031111317951037349011 0.26863139754193443576 0.25459418932832544868 -0.19837625252123769481 0.13289943362561076889 -0.15292355526373277441 -0.059259182778021932125 0.22807558908615907511 -0.29005019019720140738 0.24969290147821407433 -0.19935112394761689281 -0.28402208188929922716 -0.18203877803769030752 -0.26260370053559661807 -0.072396514057000954656 0.056807744414654040566 0.11742220750642283489 -0.20481619957817753797 -0.20164911827782708298 0.23030438120100071853 -0.10176631928835881691 0.22763632080831402993;0.3888858623643958734 0.093424882047724908118 0.31767163406212928223 -0.27820624190097054118 -0.38924030772663881228 0.38622156063469392784 0.35003839986436291465 -0.065371476213973753189 -0.36261903583937871165 0.3270421860954139115 -0.31882428017138220167 0.1676452688776997324 0.086697409072516176676 0.14860773620157621822 0.27965462377248972992 0.026628175947011577251 0.18054368347300392417 -0.13752743368564510074 -0.17172944136763682033 0.16734822777506780378 0.14931811754612214771 -0.12109536652494164166 0.19937380951062391721 -0.11868223629513015294 -0.10660575416226532319 0.2396556930873548763 0.26709238974206844786 0.15465670470865020003 -0.14890187306703178693 0.090300215572101535932 0.079167238815353965786 0.17133891030607997785 -0.0418857137614432537 -0.1416259755507342788 0.18802430974428635535 0.052102717336199443066 -0.1412028285621563517 -0.0016248638788386570581 -0.20504752449142041315 0.29841031034227899488;-0.080187103885286714622 0.087922469918394793864 -0.21605747994191540351 -0.043688195218628163297 -0.28952665654944226281 0.21689198804485848582 -0.17659235912447249217 0.017158966011915133265 0.11857942837891259635 0.16576295593099252268 -0.10126895048130615806 0.30098502899138129818 0.094820818137964224537 -0.35068427454534434329 0.22104637558896245153 0.2796827397938491111 0.21589689162184477755 0.27240641038200202884 0.29177734845631314586 0.18077932344214769911 0.11301460532718445029 -0.083289136725398199568 -0.065724279754156983424 0.3271564774631762762 -0.11745625830632058784 0.15735265174161702784 0.027065045759919092311 0.1081948864069278704 -0.04772875098564548918 0.33279413145963504528 0.29613368279899326962 -0.11247747961956035267 -0.18252759027577999951 -0.3860225083065000895 -0.24988430551491871978 0.061376153415102573108 0.095282758117784194241 -0.3622263047109026135 0.024481237434695327787 0.063555117900867846847;0.034451865940266418464 -0.086128566230192701858 -0.29219173620525989987 0.30679412144556444941 0.14589967274176707246 -0.16459865049620683863 0.23317846359605198803 0.24049779259475473348 0.053342243008469472643 0.020464469296874440718 0.00037016138325602482555 -0.21096445962182522327 0.083121891397188632511 -0.09185994733026781045 0.24950375600823093691 0.029298638683248900277 0.026500836661346744566 -0.25278192828434647987 -0.29952090154784433151 0.10338410034635282797 0.13249591328485615938 0.11688648776691375197 -0.060199619757880164228 -0.031373062601990110709 -0.16546168921695822429 0.32493762433339135054 -0.26461949191378381085 -0.099653971117402789792 -0.30874811460277995501 -0.25959139339323045181 -0.21426295874617554138 -0.18192830814682714458 -0.062183683810825868266 -0.25382015266459517777 -0.14136722397539300267 0.01592060248163600783 0.15708303344145646552 0.089554163951405640898 0.077942311279689396875 -0.10727010213493572144;-0.0023017846791852942384 0.19738217305068012086 0.20179240559216868323 -0.15530244838228637883 0.30265490422038415774 0.042215889036963528957 -0.21921309488606172122 -0.10829662605749526549 -0.085599238817298015092 -0.28137124632543086822 -0.28485866527697728534 0.269568081735623577 0.10473884800764361735 0.083893468069543966625 -0.29789056372707600762 -0.31305418144904872957 0.066740964508413685996 -0.24470852580060797887 0.068219383076969591917 0.32412492789182456576 -0.2449243805220665815 -0.1907117907333375495 -0.075498321119964670323 0.05614815978644104727 -0.13402917855540202874 0.086866578107388195407 -0.23489001617834226465 -0.25714291758405743993 0.10486226241130559844 -0.10551707664545952048 0.0065081815137847639011 -0.0010059841692559644104 0.24818421360020309629 0.079516386029493762999 -0.014643070360289800816 0.14719622453501593484 -0.30250321419352843577 -0.29425527626791964098 0.11146153949611173339 -0.10003609483665645841;-0.044964632556778051653 0.26257609613136873028 0.11949412361186219356 0.099852568573905259308 -0.27490034155051640274 -0.076625488022403126509 0.24067833959580026137 -0.11029278045847043521 -0.15179275774660783149 -0.24876254746372428173 -0.055046488634689826058 -0.0044010494941210277081 0.34251531783916439045 0.26794063438807214084 0.21437917322780997154 -0.029806662744119565706 -0.28769016741798686398 0.034041600571903148087 0.17093016056489704346 -0.0038474280004568831882 0.073549027416252008016 -0.012072536766935171651 0.17106413681042256791 -0.12655502933457082881 -0.15978386250664008972 -0.15534903763532489918 0.022243267053586111837 -0.030016843493179085761 0.026710941302225593708 0.013765830174726573221 -0.27809731990938524326 0.019655007221838115966 -0.27792815363779715954 -0.30406226393168650501 -0.14402501072278608985 0.26611973319921106151 -0.16656681983313439965 0.17850739255818887097 -0.052308708452432330083 -0.25406148333060596389;0.14824439176918013938 -0.22778648059932082859 0.016657589809151936849 -0.24254173596599795659 -0.17528407089236941463 -0.074952985684835812807 -0.19983096644840897538 -0.077583223102515114222 0.039953478323398759764 0.078241017364290940672 -0.021781403769512430735 -0.17099617647638895579 0.10201040670898876839 0.098804908338251937194 -0.11801528610740558145 0.14929763721611380434 0.087197170399810328134 0.17740147623512211861 -0.28092537357866997905 -0.26343299999553426716 0.20729905208061874533 -0.2124608383314376403 -0.098874891521568239461 0.18363398496726207609 -0.20822327183341093892 -0.14543624314477818227 -0.22373341023354353929 -0.0036377780709379056549 0.25405183948284137951 -0.2264082638505107159 -0.30664024668402545259 -0.17104256650214963442 0.21676003188808071198 -0.0029076530553768901999 0.26463214842935200988 -0.25159040786191655403 0.12203956372038801681 0.10402780043412174216 -0.08106614659664661271 0.22039700759615693526;0.27670929650869258154 -0.20001823137015492526 0.010774558669091438556 0.10305153630691145372 -0.016346273765557927521 0.088532056280131846138 0.12470825194155216176 0.32166311422116489194 0.094381440451438758377 -0.063691346770842233171 0.13416222183561715697 0.088020421636590309711 -0.36559612934444474242 -0.29724820151278430469 0.094007550584881569011 0.16644528825305868192 -0.00749743316781469743 0.2082573083524845714 -0.011802438851935267289 0.20069531254108635698 -0.16921567598379180786 0.059108217202473133101 0.27129567450397074069 -0.13652482290821416067 0.098099796878433273561 0.04111084856225914741 -0.037370824887259117275 -0.098522707202383583147 0.32185213191398176491 -0.30747179877201324949 0.097319741671501397429 -0.16732618069337104605 0.33473473229159672604 -0.1379996444428487623 -0.25329745768546541029 -0.10244416711631025574 0.077779258852311947137 0.11877717282056166059 -0.13487324917827808735 -0.22904901184407094883;0.29458456125978926821 0.14970961492111545255 -0.18206506165425340171 0.087820035781721969559 0.23848205176456402365 0.16262573416467873688 0.17680538163838316335 -0.15706078001830264812 0.31598086407459741176 -0.22636488572104174199 0.1082002952756036529 0.03954037558731895996 -0.20912037940622041354 0.20960583888052844448 -0.088570253524834482994 -0.033399226855564831395 -0.12551956357780100215 0.26746158142803322377 -0.13808637644308971448 -0.034209041176777928162 0.17252787057021562456 -0.082785335550437919028 0.19124906990324178069 0.013594450270502024536 -0.22947402538450140108 -0.2899104435355724374 -0.30503918315046546494 0.13151383110986497593 0.004217195106563025736 0.24666288772447281241 -0.18559059368842897864 0.22945531692370441101 0.2196056506983567469 -0.27541257837375193729 0.18518729626416313705 0.039906737390995074277 0.038031144423812349165 0.01196594026706572847 0.030705076507827999688 0.15531236699716907679;0.1694073911901220475 -0.20430572087686052485 -0.094966344108147221492 -0.35363125539869982861 0.066075431801615652772 -0.12008658881615805192 0.0091214346858079463354 0.1542325675345780911 0.20105282201758986615 -0.13440612354983122456 -0.1921534398757270834 -0.15471957581987735852 0.24878447369913109233 0.29941594723800757372 -0.041433256340086328795 -0.083295100604591471027 -0.091185809446870824679 -0.02961856208178749103 -0.27700420538438857987 0.22863492637689422637 0.23076686935502926934 -0.11676775369816030925 0.1359786058487250926 0.0060935923542692026211 0.36002532010025944942 -0.21062916691769767441 0.4586273077062554826 0.095478484732702456617 0.38699868794469688416 -0.3763040643397436158 -0.36118061972111797919 -0.10757015378159098806 -0.37530932784931059221 0.085074036316056519946 0.27448511269327563467 0.21776512393738561846 -0.13565054566102097144 -0.074873346665721568494 -0.051303545460081284579 -0.20514807853462793674;0.18731872704126806273 0.24033218641373582658 0.032332816867822002094 -0.033767999910757746929 0.070595735549815380461 0.22651901292608458971 0.046162222677901321166 0.09096934056728954443 -0.18097548831339416164 0.049294541910925887551 0.21890878575626901426 -0.1043693574485988762 0.28321612073929886 0.27898258305293349713 -0.21313194558717346583 0.25499515390273680415 -0.10332838946159042526 0.1248189306033472834 -0.24552328917689630883 -0.1021034330479918123 -0.13477701374709294413 0.14307227036382025309 -0.092852846184525328344 -0.1591177955873418759 0.26944861337119435651 0.11558809209937227769 -0.11147354493511003881 0.086082703978575550452 0.30331742120537258378 -0.21752801586268891154 0.14428291357282879703 0.19244007607632429568 -0.281495116178411664 0.26831033878015819738 0.22816518464148066725 0.28771740643849325059 -0.28923418311665954894 0.034616501503457908218 -0.050393175380706346778 -0.04084745427040194915];

% Layer 3
b3 = 0.0011775395202471960338;
LW3_1 = [-0.43537332199715367276 0.50998198191043819794 -0.24584972407116251203 -0.25221153849676880565 0.058975904852245852883 0.70194629176733691622 0.30539866861059516978 -0.59285157148150147144 -0.51061197951512093951 -0.40726638583088192735 -0.36252043657389515507 -0.63733430350584252544 -0.15549841382304771531 -0.38893671846681654447 -0.44994656183526005044 -0.3383256769764019789 -0.44476716322606235643 -0.17474787872581490356 -0.47273325573010765988 0.63836351562829607431 -0.38700738019850700056 -0.012543270517054897623 0.14520252761922800011 -0.3234801638506383803 -0.49244637408527786038 -0.34732096042401888747 -0.71985009093777807543 0.3243065142805104939 -0.59069776508697069417 0.42584140686522703456 0.53005596072223470916 -0.77447979240605246964 -0.57704163230555094444 -0.65275728597741478065 -0.11620901203151577652 -0.11951234615013187068 0.14337806616226411727 -0.27532579826303249515 0.73171774609303863457 0.1989760230889563164];
LW3_2 = [0.72513352474766212818 -1.0182657873239382429 0.73800483796938531889 0.71197908602147963464 -0.062448525338297700138 0.015709534867822179394 -0.44168425513383019476 0.5365889090705466824 0.56777033729444781329 0.73554836122219591221 -0.42559593695865105545 0.1251879646489880149 -0.20703990923960169379 -0.35931486905389226072 -0.5775698246142044745 -0.63593721082225584951 0.25933464926331817324 -0.12908581269328453511 0.73369364694964822604 0.67077233313327000452 -0.12525385586071358102 0.27714298281818716685 -0.087667662714490363074 -0.13766120434296105768 -0.076232515403199946347 -0.66402259756195614049 0.080850727455090171114 -0.0033638818212259353341 -0.74584611839679171297 -0.45257630409666765869 0.14935050233430249844 -0.89806587788631386804 -0.48353256922612375401 0.2470156452410545711 -0.15784757303558527575 -0.73783930685041687614 0.92514844233401771767 -0.95512894669046077833];

% Output 1
y1_step1.ymin = -1;
y1_step1.gain = 2;
y1_step1.xoffset = 0;

% ===== SIMULATION ========

% Format Input Arguments
% isCellX = iscell(X);
% if ~isCellX
%   X = {X};
% end

% Dimensions
TS = size(X,2); % timesteps

Q = size(X,2); % samples/series

% Allocate Outputs
Y = [];

% Time loop
% Input 1
Xp1 = mapminmax_apply(X, x1_step1);

% Layer 1
a1 = tansig_apply(repmat(b1,1,Q) + IW1_1*Xp1);

% Layer 2
a2 = tansig_apply(repmat(b2,1,Q) + IW2_1*Xp1 + LW2_1*a1);

% Layer 3
a3 = repmat(b3,1,Q) + LW3_1*a1 + LW3_2*a2;

% Output 1
Y = mapminmax_reverse(a3,y1_step1);

end

% ===== MODULE FUNCTIONS ========

% Map Minimum and Maximum Input Processing Function
function y = mapminmax_apply(x,settings)
  y = bsxfun(@minus,x,settings.xoffset);
  y = bsxfun(@times,y,settings.gain);
  y = bsxfun(@plus,y,settings.ymin);
end

% Sigmoid Symmetric Transfer Function
function a = tansig_apply(n,~)
  a = 2 ./ (1 + exp(-2*n)) - 1;
end

% Map Minimum and Maximum Output Reverse-Processing Function
function x = mapminmax_reverse(y,settings)
  x = bsxfun(@minus,y,settings.ymin);
  x = bsxfun(@rdivide,x,settings.gain);
  x = bsxfun(@plus,x,settings.xoffset);
end
